<?xml version="1.0"?>
<opencv_storage>
<my_nn type_id="opencv-ml-ann-mlp">
  <layer_sizes type_id="opencv-matrix">
    <rows>1</rows>
    <cols>3</cols>
    <dt>i</dt>
    <data>
      48 43 6</data></layer_sizes>
  <activation_function>SIGMOID_SYM</activation_function>
  <f_param1>1.</f_param1>
  <f_param2>1.</f_param2>
  <min_val>-9.4999999999999996e-001</min_val>
  <max_val>9.4999999999999996e-001</max_val>
  <min_val1>-9.7999999999999998e-001</min_val1>
  <max_val1>9.7999999999999998e-001</max_val1>
  <training_params>
    <train_method>BACKPROP</train_method>
    <dw_scale>1.0000000000000001e-001</dw_scale>
    <moment_scale>1.0000000000000001e-001</moment_scale>
    <term_criteria><epsilon>1.1920928955078125e-007</epsilon>
      <iterations>10000</iterations></term_criteria></training_params>
  <input_scale>
    1. 0. 3.5988173690573234e+001 -3.9086280653949981e+000
    3.0631867957234761e+001 -4.9445663272465836e+000
    3.7190116200787678e+001 -5.1360306890717196e+000 1. 0.
    2.6478817602294249e+001 -3.8033818090467402e+000
    2.3520433101323757e+001 -3.9243608044320317e+000
    2.5193422280172719e+001 -4.3045470153401491e+000 1. 0.
    2.7269703851800521e+001 -3.8704964277452505e+000
    2.3256377049179065e+001 -3.9567350784938715e+000
    2.5003515045290424e+001 -4.2518848264095759e+000 1. 0.
    3.1626883354942333e+001 -3.5180050449254545e+000
    2.3066257605437510e+001 -3.7470416029345190e+000
    2.9428520842051395e+001 -3.9630173365450210e+000
    4.5029849085789726e+000 -2.2203507607075483e+000
    3.8487534787025961e+000 -2.1512268412578672e+000
    4.5014905858321770e+000 -2.7750054552629124e+000
    4.9156653200689160e+000 -2.1818637521240789e+000
    4.7834520860290839e+000 -2.6121290468522358e+000
    5.4775121483301703e+000 -2.5222459411688858e+000
    4.8086023229438863e+000 -2.5794741128225165e+000
    4.9150592773262485e+000 -2.5638128997858329e+000
    4.3507801407346713e+000 -2.2721008946457668e+000
    4.5567044746756888e+000 -2.0625631617631375e+000
    3.8617401362329713e+000 -1.8423574178866096e+000
    4.2928263792978587e+000 -1.9926042940909081e+000
    4.3582912658438264e+000 -2.2102720338917088e+000
    4.4673221475109743e+000 -2.6286919512087188e+000
    4.6778570157397885e+000 -2.9224467205901514e+000
    4.6350293386327630e+000 -2.1630885936399129e+000
    4.2306880367921762e+000 -2.0368591957962559e+000
    4.7005380192688504e+000 -2.4182560913478821e+000
    4.6268534431816377e+000 -2.5707801624784974e+000
    4.2662319858376003e+000 -2.0566191102631719e+000
    4.5242795230487465e+000 -2.2578086188478590e+000
    4.3692520424304444e+000 -1.9111018191810625e+000
    4.0257779388487300e+000 -1.8284647346364982e+000
    4.0947977697569709e+000 -2.0135731667653403e+000
    4.8234081164988094e+000 -2.5327177060617276e+000
    5.2789756408124591e+000 -2.7850341830396332e+000
    4.6915917939955740e+000 -2.3829931900243406e+000
    4.2819791118688597e+000 -2.1398438004110862e+000
    4.6409580579533198e+000 -1.8395109526305184e+000
    4.1184390341673529e+000 -2.4503145175440566e+000
    3.7792312775521846e+000 -2.1886413620787062e+000
    4.7698515869086346e+000 -2.0175977612859239e+000</input_scale>
  <output_scale>
    5.2631578947368418e-001 4.9999999999999994e-001
    5.2631578947368418e-001 4.9999999999999994e-001
    5.2631578947368418e-001 4.9999999999999994e-001
    5.2631578947368418e-001 4.9999999999999994e-001
    5.2631578947368418e-001 4.9999999999999994e-001
    5.2631578947368418e-001 4.9999999999999994e-001</output_scale>
  <inv_output_scale>
    1.8999999999999999e+000 -9.4999999999999996e-001
    1.8999999999999999e+000 -9.4999999999999996e-001
    1.8999999999999999e+000 -9.4999999999999996e-001
    1.8999999999999999e+000 -9.4999999999999996e-001
    1.8999999999999999e+000 -9.4999999999999996e-001
    1.8999999999999999e+000 -9.4999999999999996e-001</inv_output_scale>
  <weights>
    <_>
      2.6037700261523386e-003 -5.1654712258730360e-004
      4.8260580151588539e-004 1.3875248460823018e-002
      5.8852466887223294e-003 -1.3542623649661059e-003
      -1.0064368402576164e-002 3.1376528650555770e-002
      -3.4580989086619225e-002 2.3982250325599936e-002
      7.1179072146909670e-003 -1.0509905503439661e-002
      2.4448331268703320e-002 4.1847750137195220e-003
      2.0623376240110788e-002 -3.3222848183900477e-002
      1.0692172162440374e-005 2.3889866024807537e-002
      1.0360592144118358e-002 1.0553192544187654e-002
      -1.1124127570390208e-002 7.7029680509464902e-003
      -2.0803484992131100e-002 3.0933306099141522e-002
      -3.2592188769391121e-002 -1.0877721807162719e-002
      2.8771704082822442e-002 1.7969967534530208e-002
      -3.5248996205865342e-003 1.5594387851046053e-002
      1.3768208209114157e-002 -2.6716812377975484e-002
      8.6294501105850397e-003 2.5655952717500079e-002
      3.5588934853810872e-002 2.5099032841561234e-002
      1.9139409008632327e-002 -2.3057320668046728e-002
      -2.6310954102166231e-002 3.6880908827064705e-002
      -2.9438996475276636e-002 2.1275711408126962e-002
      3.1144516666829433e-002 -1.2068539819418795e+000
      6.3716758388519035e-001 -3.9211272682137222e-001
      2.1277285052786044e-001 5.6661010413118040e-001
      8.0332486714510300e-003 -5.1332833188437610e-001
      -2.2807100310336969e-003 -2.7237702496824608e-002
      4.2818893005555372e-002 3.2106324512091389e-001
      -1.0090626008871391e-001 4.6999088131081293e-002
      -2.0275336181822087e-001 1.4173985712023382e-001
      2.5907411132379227e-001 2.3089189060743237e-001
      -1.4120620410751336e-001 -5.2358686213840544e-001
      5.2991572814015364e-001 1.1961302674369885e-001
      -1.8745618081115323e-001 -2.0339291346572811e-002
      -9.0046406982774621e-002 -3.9281952717903718e-001
      4.2706745558385972e-001 3.9628609047928426e-001
      4.5791430533733787e-002 3.1549031293135500e-002
      8.3987821092746925e-002 -2.5487588051858817e-001
      2.7302802149735489e-001 3.5620908041232291e-001
      6.2969377241966010e-002 9.8643831365319762e-002
      -3.4337500205457289e-001 -1.0457703556535775e-001
      -4.2028890171806438e-001 9.2634965575437475e-002
      -1.1052742149800431e-001 -2.8415460943643556e-001
      2.6362468619566620e-001 1.4055901454254671e-001
      -2.5493730393895203e-001 -2.6553010612552908e-001
      -2.6890153211923618e-001 3.5931917708736011e-001
      6.0420240186912033e-001 -2.3249117701072522e-001
      -1.2158836253339279e-002 3.2291212630621752e-001
      -5.5405497883007337e-001 1.0659976933257102e-001
      3.7181027598541298e-002 3.9179343053057827e-002
      -1.1105766730540573e-001 1.6907601168129044e-001
      4.9028005650708900e-001 -4.5733735951288285e-001
      3.2002402932250978e-001 -2.7784392717418799e-001
      1.5871715747679577e-001 2.9601992470963776e-002
      -7.9229298120448266e-001 -2.7537119376519026e-001
      -1.0850215283768243e-001 1.1924882808179985e-001
      -2.4894999278093954e-001 -5.8169909382677354e-001
      -1.2369527646159562e-001 -5.9300178291930017e-001
      8.3583581653597139e-002 1.5181899582855515e-001
      3.3578734332639359e-001 -2.6215539772830315e-001
      6.0472055642909729e-002 2.0280823714920678e-002
      -2.7613637293761883e-001 -2.8499341660829264e-001
      2.8558436243007529e-001 -7.8712369152696371e-001
      -7.7341482262721251e-001 -9.1651680154153745e-002
      4.2836304799365882e-001 -2.7940141156847248e-001
      -1.8444549440825606e-001 3.3267878132059168e+000
      -4.6354936685953224e-001 -3.2087229185237026e-001
      1.7213204850458944e-001 1.1634424756848899e-001
      4.3834300306158491e-001 -1.5857109747967615e-001
      2.2237794492055412e-002 -5.6349674364594604e-001
      -3.7282511475490426e-001 -7.0587759159844643e-001
      -3.3260057020518186e-001 -1.7810641120937823e-001
      2.8110746838537898e-001 -4.3264962799375600e-001
      2.3266296170122366e-001 1.1661005941670226e-003
      -2.2575797785869553e-001 5.3269961079256349e-002
      -9.0574528181691283e-001 2.2237633809937130e-001
      3.0522914834407100e-001 -2.6839995263404439e-002
      -1.7248903929198703e-001 -1.9900435522565024e-001
      4.6261095270003594e-001 6.5554271130587607e-002
      -8.3294863943894448e-001 5.4457205822691868e-001
      -3.2350697018586250e-001 1.6836681354664088e-001
      -3.4234416762243058e-001 -2.7630302820833319e-001
      -2.1397435231882919e-001 3.5776204533376116e-001
      1.1059796289799705e-001 1.3662673971258990e-002
      6.9800578649875122e-001 4.6684960729997865e-001
      2.4758812225958976e-001 3.5322977246208254e-001
      7.8686116590173744e-002 1.6831415346871900e-001
      1.2696099018300551e-002 8.5077102929974682e-003
      1.0641774218640184e-002 4.4394719225858033e-002
      3.4785665111139952e-002 -3.2171406945996642e-002
      -1.1562212303775878e-002 -3.6343787498150017e-002
      2.7248550242706442e-002 1.4046156425358487e-002
      -3.8781127746620910e-002 -1.8472184203262083e-002
      2.6594942529375519e-002 1.3423085900797434e-002
      3.8174607747136803e-002 -9.8672401660377679e-003
      -1.2804188257319013e-002 2.7820136592968246e-002
      -2.4368078400729145e-003 1.1531694891133516e-002
      -2.6911050904829835e-002 -1.3441378524846457e-002
      -2.4236215690212538e-002 -2.2013426986230624e-002
      -1.6816007057028921e-002 -1.3100804891060891e-003
      1.9896793639926757e-002 2.4467138394156724e-002
      -2.7213365961486914e-002 7.4119468991453172e-003
      3.6374288565479453e-002 -2.7516079045117156e-003
      -9.0407900660448119e-003 -1.5739649056933539e-002
      -2.8316606281423903e-002 -6.8474333598555874e-004
      3.4093031481140047e-002 -1.5022972087093084e-002
      5.4894300634267664e-003 -2.4341136775718527e-002
      2.8409562897058035e-002 -9.6143711099024795e-003
      2.5759743597175047e-002 3.4173506520079616e-001
      -6.0736646533190686e-001 3.9868834105416495e-001
      1.3274841671449611e-001 8.9011961712177082e-002
      4.9447669027174690e-001 2.8767024912772998e-001
      -1.3981439871367263e-001 3.0261449345097724e-001
      -1.4418574272334818e-002 -1.4020639223299594e-001
      1.4390861761081553e-001 1.3109176598297448e-001
      -2.7638769765097573e-002 2.0741571804543581e-003
      6.1011273455193382e-001 4.9716562879861659e-001
      1.6626099683416254e-001 -4.5425436579892220e-001
      2.6063391351427223e-001 5.0690713774021245e-001
      -4.6366628424625350e-001 -7.6710920305913455e-001
      7.3555243818779939e-002 -3.2758197393914684e-001
      -1.3299762533599851e-001 -1.2195907166803559e-001
      2.3096920888115269e-001 -2.1208466611079987e-001
      -4.8842307564676840e-001 2.9561227277235180e-001
      2.5258224035373611e-001 4.8190180745354760e-001
      -3.0606024444893482e-001 3.4787821320090045e-001
      1.2237586357252277e-001 1.7645225675226345e-001
      -2.8923966745275204e-001 -3.9415823390156363e-001
      5.1501460641125185e-001 4.2190217483875758e-001
      5.8635129181171830e-001 6.4429459543353684e-001
      -1.5956482444444842e+000 -1.6438111951981713e-001
      6.1893327035557277e-001 1.2953667382107911e-001
      1.3135358344231582e-003 -1.7186951354292004e-001
      7.2428886405482382e-002 6.6522060803999084e-001
      -6.7765944944033996e-001 3.6384837204914466e-001
      4.5633098905330866e-001 -4.9470134077857936e-001
      8.4447309346154631e-001 -1.9228767043177353e-001
      6.0128479092399212e-001 5.1922518718849198e-001
      3.9730299627039317e-001 -2.7382527368621534e-001
      7.7400893680820337e-001 7.2801675118519704e-001
      -3.8801635134874229e-001 -2.2353489931976146e-002
      -4.2625150685357627e-001 -6.2359800216618473e-002
      -2.9629932938094089e-001 5.1322878774979852e-001
      -1.2276729497259889e-001 1.1908200287405325e-001
      -8.7033835238925442e-003 -5.0673366085698546e-001
      -2.0558965469775653e-001 -2.1811143744601308e-001
      1.7635889243721291e-002 -4.8934324369005563e-002
      -1.0156941294936732e+000 -1.5232547929877491e-001
      7.9423715160248176e-001 -4.2383018175082381e-002
      2.3388010610313129e-001 -1.6315501790026368e-001
      9.6569985728677732e-001 -5.3613865748426234e-002
      2.3780953931245200e-002 -1.5969432041872919e-001
      -4.5783368139300112e-001 -6.4832733361123251e-001
      1.6366324218689229e-001 5.4777484967644219e-001
      -4.2956844452519444e-001 -1.3014601863300504e-001
      -2.7597974897385291e-001 6.8516002290786326e-001
      -6.6201285183311431e-001 1.1116086601493473e-001
      2.9868569608838780e-001 4.6023806864313638e-001
      -1.7362780020448251e-001 4.1884151586963148e-001
      -1.0095043304159043e-001 -3.5869479484194422e-001
      -5.0695490476261207e-001 -1.1226182047312661e-001
      4.0129861490266061e-001 -1.0490663863807066e-001
      -4.3415539379991180e-002 2.8935305246358345e-001
      2.8231189044977495e-001 -1.5566615018296757e-002
      2.9199000070617664e-001 2.2639912308584931e-001
      3.1217556333703406e-001 -2.9511579004090382e-001
      8.3614049406793317e-002 2.9361516204382787e-001
      5.5096650517553891e-001 8.7293251627311844e-002
      -1.8311729202196114e-001 -1.7284320889832033e-001
      3.2024977080774369e-001 3.4424080490039799e-001
      1.2666989339102304e-002 1.5758214670294443e-001
      4.2357302182480759e-002 3.0795509709033782e-002
      2.4183426052197457e-001 -9.2118245783304742e-002
      1.3699018576574427e-002 -1.2162394239213514e-002
      -1.7670605924616351e-002 1.2051869862037656e-002
      -3.0112281356781862e-002 3.3816964544149744e-002
      2.7474165718134144e-002 2.8103297430687214e-002
      -3.2019072068864188e-002 3.4666379109740665e-002
      4.6539532357825087e-003 3.0073091633442538e-002
      2.4466029259485518e-003 3.8681142748125980e-002
      2.9097206648169689e-002 -3.1768223212969189e-002
      -3.8822053923914003e-002 -1.3108518730227371e-002
      -2.6738237439162777e-002 -2.5417233347173870e-002
      -1.5998700841874117e-002 -5.0006482410177534e-003
      -1.3335071055520155e-002 2.1178423402380454e-002
      3.0700892993085732e-002 -2.5928025344965713e-002
      8.7166532843225494e-003 2.9728504348348419e-002
      4.0940246272881572e-004 -3.9645240488456565e-002
      3.5347286657378067e-002 -2.6947301165957331e-002
      -2.7968470076496197e-002 6.9429405011966943e-003
      -2.9650549063669918e-002 1.7643170006281819e-002
      -2.4899544398074673e-002 -3.6645001102972710e-002
      -4.7305158914766028e-003 -1.3804319146943864e-002
      3.5052059513077841e-002 -8.1781852364326349e-003
      2.2039783382570406e-002 -1.2633671393855337e+000
      5.2703840149609021e-002 1.0525812280003320e-001
      1.1270198063675745e-001 -2.2859309605108533e-001
      1.2198580418977963e-001 -6.9055711391064722e-001
      2.2167207988492779e-001 -3.8718987469291755e-001
      6.9308783084808478e-001 -1.7826693229766233e-001
      -5.9545165781863674e-001 -4.7067821712800667e-001
      3.1964339959879490e-001 2.0660725545443470e-001
      -3.3935814373989548e-001 -3.2123210627670390e-001
      1.8848324773200240e-001 3.3252426917170114e-001
      2.7735701395360995e-001 6.7880182596292382e-001
      2.3425876954727229e-001 -6.8396562700156996e-002
      3.4128429858105352e-001 4.4388360655659556e-002
      -2.1273632587429026e-001 1.2774802643472680e-001
      3.8320761060233521e-002 -4.6726233031423714e-001
      2.3534764628960123e-001 7.4723560318378568e-001
      2.1775136092056901e-001 -4.8667892166187048e-002
      4.7661357292489581e-001 -4.2454734455902421e-002
      -5.5519079173357155e-001 3.6186536736945041e-001
      3.2259973368974654e-001 2.5441268605815476e-001
      8.2739722450303332e-001 -2.3987253664918909e-001
      1.7125063659452111e-001 6.9809639461946724e-002
      -1.7941560329286215e+000 3.6171830167512053e-001
      -1.5414312326882326e-001 1.3473799161411648e-001
      3.9626799814469110e-001 -3.5777531866963708e-001
      -1.6487535968665831e-001 1.4990374902965534e-001
      -4.4061778173743094e-001 2.7072170270309381e-001
      6.2608064410070685e-001 1.9920306138056343e-001
      9.3416166726386571e-002 -2.4367946104513827e-001
      7.0858433402297216e-001 1.2603619682502556e-001
      -4.5455790740918300e-001 -1.3008499685790798e-001
      2.8935433436445102e-001 -3.4462280782197940e-001
      8.4959713817366778e-001 8.0051149760792153e-002
      7.0734841854723962e-001 -2.9542896076281322e-001
      -2.9264608826920779e-001 -1.6152115771213488e-001
      3.1255502905102728e-001 7.2018294757864232e-001
      -1.2487171044695444e-001 -1.3558840042061046e-001
      -6.2785762818199420e-001 1.5151071296521486e+000
      9.8102647468008952e-002 4.3905861646830563e-001
      1.3859465027760678e-001 -3.2412752919949206e-001
      -2.3328144552747859e-001 -3.3311269101663660e-001
      7.1731657725020950e-002 -2.0521556809426637e-002
      -8.2969632148756620e-002 1.4943788592918802e-001
      -2.2798335628712557e-002 9.7900295422226002e-001
      -5.7615453842003550e-001 -3.9480103905925207e-001
      5.5157592994743798e-001 4.5731234084331589e-003
      -4.1024974603278169e-001 -2.0225258111766904e-002
      -1.9179577504920042e-001 1.3370755789379321e+000
      -1.5894207766848770e-001 1.7028416541459990e-001
      9.0722081036567315e-002 -1.6192566859677379e-001
      2.2362624957825195e-001 2.2891456265603941e-001
      5.5886209665282238e-001 2.4901294259180390e-001
      -3.6583250566356092e-002 -1.3194353318108369e+000
      -2.7433571085661351e-001 1.1519262037868948e-001
      2.9285954429715727e-001 -5.4283919787209833e-001
      -2.1224785700823709e-001 2.5321448558215631e-001
      4.7754155607607846e-001 7.3458887501432160e-002
      4.9216503534387529e-001 -1.5166266372728309e-002
      6.0642416052448611e-001 3.7256397195638863e-002
      -3.8109764829978721e-001 -6.7726415766468473e-001
      -7.0664470497903109e-001 5.5252830191113100e-001
      -3.9335864704057499e-001 -2.5110625078614518e-001
      -1.3885972903856778e-001 1.1465386916994900e-001
      -1.8673641875851554e-001 9.4305512815470605e-001
      2.1507383990609802e-001 7.9317786626849907e-002
      -3.5906599247054062e-002 -7.5354173819656423e-003
      2.4369955882486336e-002 -4.4801278608656889e-002
      2.4747762085329313e-002 3.9344682946588556e-002
      2.9927766248126247e-002 -8.4746070113385155e-003
      1.4445501177004936e-002 -1.8256913714343268e-002
      -3.5282156869561355e-002 1.1201213371661535e-002
      2.4222982216129934e-002 -2.3691111460388142e-002
      1.7539580726321821e-002 3.9488660987215686e-002
      3.1232225495123733e-002 3.3805242944886543e-002
      1.7945181723571863e-002 3.8780643880722013e-002
      -5.6888731688730055e-003 2.9303967667020914e-002
      -4.0777964428726443e-002 -7.5196818531462198e-003
      3.6469713194187632e-002 2.6166288894893492e-002
      -1.5498736759370548e-002 1.5072377888504898e-002
      -8.7565863922650627e-003 2.6716973790437252e-002
      -1.7287683677963326e-002 -4.1109401698861299e-002
      -7.3432734506056621e-003 1.7828183740044995e-002
      -1.3300897600938940e-002 -1.1941545991223400e-002
      -1.0368066442696998e-002 1.2328066810259102e-002
      3.2177638281955877e-002 -3.0142063653647109e-002
      -1.7741461768082525e-002 1.5207851622774226e-002
      2.7995469164819719e-002 -3.6635727150189827e-003
      3.7854887877537913e-001 2.6503039618085072e-001
      -4.5942191030593760e-001 3.5839432878225636e-001
      4.5860398807587721e-001 -4.6863143142920705e-001
      -4.1953664329048496e-001 -1.7084722593143620e-001
      -3.7907744906664259e-001 4.8002903023521015e-001
      3.0894680371869176e-001 2.4811164796181379e-001
      -1.8603923778441450e-001 -1.7480888335552422e-001
      -8.3855842218671581e-002 1.1655317207486542e-001
      3.2455011729870442e-001 -4.3564351370505466e-001
      7.9060779284877514e-001 1.3919417149814986e-001
      -7.5407905873735831e-002 -2.5744351664539707e-002
      1.6564157646134314e-001 -1.2132939675139506e-001
      5.6082885150628004e-001 4.6570351417571959e-001
      3.6618284777628290e-001 -3.9071916097033638e-001
      1.5510705906521477e-001 -8.5854003228934517e-001
      9.0676352230471075e-002 5.0315632102595331e-001
      1.5877195522012864e-002 -2.2128387442289793e-001
      -7.4763769120545845e-002 1.3712954343266051e-001
      -4.1619654701490000e-001 8.6085749989240776e-002
      2.2381533415774491e-001 -7.7038271360074351e-001
      -3.7075884792860825e-001 1.3792615582793966e-001
      -2.3600448457761400e+000 7.9994814560725214e-002
      2.0488232855756483e-001 -2.4588431389010615e-001
      2.7608549663971937e-001 2.4023691820386286e-001
      7.3448038020327133e-001 4.0825898842414704e-001
      -2.9588759284645988e-001 -5.8841238686014341e-001
      -1.1945913286169586e-001 -9.9614562202524487e-003
      -5.8763467912501610e-001 -4.7083120112905019e-001
      -2.6417330273531242e-001 4.2010746159285689e-001
      7.1054820366222932e-002 6.6810400453413701e-002
      4.2136189435679888e-001 1.1796261958959692e-001
      -1.2487799586824502e-001 3.4464977262179042e-001
      -6.1709627965862723e-001 -1.2527880853413265e-001
      -1.2077630982977788e-001 3.7847309727644102e-001
      3.8741901468294371e-002 -3.5684179683242495e-001
      2.3780660342343735e-002 -1.6809206474033175e-001
      4.2746151910085184e-001 -1.3474651178597144e-001
      -3.7876084027165197e-001 1.4887414285783099e-001
      -1.8380529434175544e-001 -6.5286497762198165e-002
      -1.6215735107183823e-001 -3.3088481789651342e-001
      -6.5286868102768147e-001 5.6665361172738536e-002
      3.8281199038076014e-001 -8.5954639713693576e-002
      -3.2877752808883848e-001 6.1892969336746106e-001
      6.3853859868780327e-001 -2.4313450132958175e-001
      -7.2115566933722034e-003 -5.2097792047112479e-001
      -5.3814787670800901e-001 4.9757007054761626e-001
      -6.8475259672375555e-001 -1.0725068433213274e+000
      -4.2234942798156323e-002 3.8683706223760256e-001
      6.6547227982577151e-001 -2.9558977322897362e-001
      1.7173435395014405e-001 -2.9082526624491195e-001
      4.1067558278980526e-001 1.8617130287163583e-001
      -4.4974347717114577e-001 -2.6644855150281715e-001
      1.4056966517891500e-001 -9.4507301239218994e-002
      -6.1671456956813886e-001 4.7454551540380369e-001
      2.5277207946297342e-002 4.5944040277171166e-002
      -4.1595061706757136e-001 -7.6528678547730100e-002
      -4.0421887181310889e-001 -1.8566381929323053e-001
      -1.4612658542573834e-001 -4.9838950512201153e-003
      -2.0328822607455407e-001 -4.5907443407155241e-001
      5.9135359089618733e-001 -2.8863956586166389e-001
      -6.5305866001170554e-001 2.2422776717998100e-002
      -8.0097076981836490e-002 -4.5847316379686205e-002
      -7.8113233646469687e-002 -7.5689301398272346e-001
      1.1308732109862978e+000 -6.0043387038665935e-002
      -1.8760598223605285e+000 1.8699677620376012e+000
      8.1808020935890391e-001 1.1454376593964358e-001
      1.4234114061892303e-001 9.4323503645786066e-001
      6.2866880906901823e-001 2.6169625848164202e-001
      -1.7308713321780429e+000 1.9994329162483562e+000
      -1.9911267065191551e+000 1.0900239078405900e-001
      -8.9157546088011991e-002 9.3999351516152863e-001
      -1.8221904311799364e+000 6.2955521384598567e-001
      -2.4198113649122637e+000 -1.2489884891430301e+000
      -2.7920713524604606e-002 1.1763694297236140e+000
      8.4787796372326574e-001 7.3432858293902692e-001
      -5.8459322758866472e-001 1.9155342799384230e+000
      -5.2554575077174970e-001 1.0658822051715131e+000
      5.0561226264269077e-001 -7.3598606351565532e-001
      -6.4296763897899201e-001 -4.7375294756145112e-003
      1.5266979886933350e+000 -2.0781198977966187e-001
      -1.8722788970348789e+000 -5.9134015871406553e-001
      1.1538934785007433e+000 1.7432730590866687e+000
      -8.3735882670315609e-001 -8.9974017701319142e-001
      1.0950709776070531e+000 1.4718485269066748e+000
      1.7898853940819895e-001 -6.6358161498604396e-001
      1.4379103057053071e+000 4.8070104436750694e-001
      -6.9329991439513361e-001 -9.1975660502627329e-002
      -2.4154667578689037e-001 -4.1151931958826993e-001
      9.6284236454695221e-002 1.3011284506971121e+000
      1.9392092852094338e+000 7.5734452108699613e-001
      5.6537546997963917e-001 1.2138606098393903e+000
      -9.1306222860800590e-001 -4.5920648782955256e-003
      9.6103754395809315e-001 2.3729038470690349e+000
      1.6661402266278041e-001 -1.4695775581732478e+000
      -1.0989826113286574e+000 1.9760523250942656e+000
      -2.1381653200668929e+000 -8.9952480671940740e-002
      -9.8468079067669190e-001 -1.5034690376675861e+000
      -2.9254866645277078e-001 1.2464350563452620e+000
      -1.1575200378716086e+000 -1.0098969843569485e+000
      5.9422982378544797e-001 5.5639993362473250e-001
      2.1682181070850262e-001 2.8290955501235998e-001
      -4.3037596611749301e-001 8.2440598332049558e-002
      6.6433086310256984e-001 -3.3603261721661308e+000
      -4.0006223302834976e-001 5.3455337473198278e-002
      3.2550376585875324e-001 -1.3049738188817244e+000
      -9.9739945657902884e-001 7.1079822295240319e-002
      4.3184699401312165e-001 9.0628551484295783e-001
      4.7939339376950962e-001 -1.3431401818491615e+000
      2.0526481838751329e-001 -9.6952337497246255e-001
      -4.0737908709172360e-001 -7.1335431532176963e-001
      1.1337789437394210e+000 2.2276397082072545e+000
      2.0772330017930132e-001 1.2174400018901778e-001
      2.1470958881162510e+000 -1.2797085522145717e+000
      1.0231069586279220e+000 -2.8950395807149462e-002
      1.3505995520282372e+000 -1.7202876885828913e+000
      4.0167053482239645e-001 -1.4226597662851725e-001
      2.0450522333135908e+000 -1.6493057073233415e+000
      -5.0992132011198787e-001 -1.3320985381955053e+000
      -2.1133673325054279e+000 -1.4668865127506574e+000
      3.8710501112300361e-001 -1.9398037362846625e+000
      -1.0472266263092929e+000 2.8532175378566438e-001
      5.8753466572449387e-001 -2.5866303639299831e-001
      -1.0758678856438184e+000 -4.8365176643965979e-001
      2.0208049843172202e+000 1.3561886375967827e+000
      -1.7953345384744686e+000 -8.5188958373958057e-001
      4.6248493256493806e-001 -2.2899922613544652e-001
      -9.8537084187280810e-001 -1.8021925081596766e+000
      -5.8582756345278431e-001 1.1282378553058739e-001
      -1.1665788472655205e-002 6.4340370605147434e-001
      -1.2469261462126899e-001 1.1657250434206698e+000
      2.9677014688455405e-001 -3.2749146286793829e-001
      4.5016049122874924e-001 -2.3578998965897116e+000
      4.8944179691628364e-001 -4.6375802899371016e-001
      2.7650604113234323e-001 -1.4535663269517873e+000
      -1.1714368172481000e+000 5.9732575426320111e-001
      -3.4685068952122033e-001 -2.1828236998171721e-001
      7.4235163568600882e-002 8.4438986885526923e-001
      1.3854245437581041e+000 -4.3283041848979448e-001
      1.3751921986520286e+000 -4.9860411408327948e-001
      1.2899126657072195e+000 -1.2455230000847382e+000
      9.1788158439627357e-002 -1.0063794531240289e+000
      -6.9483502090432181e-001 1.4496161963480067e-001
      2.0623132550871501e-001 6.1316566553841645e-001
      9.5962874763851597e-002 -7.2663560727223464e-001
      4.4076464600712018e-001 1.5536988060242931e+000
      -1.2762778750471439e-002 8.4008766291911208e-001
      6.0662414484009963e-001 -1.3386284193384008e+000
      -5.3983060865754739e-001 2.3185623751679101e+000
      -2.1397670504165252e+000 1.6772883689014195e+000
      -5.3109847353449979e-001 1.2288096556537137e-001
      -4.0274692326622263e+000 1.1032728335493525e+000
      -1.1796342457563552e-001 -2.7072840782403673e-001
      4.9093475434558248e-001 -5.9129244658344737e-001
      3.8051954605331723e-001 1.2950315934547715e-001
      -1.6302100482076934e-002 3.4665129899441899e-002
      -4.0261335441347401e-001 3.7721799939818407e-001
      -3.9932349922244820e-001 -1.7276028091649448e-001
      -6.1333187830173486e-001 -7.0162751796896894e-001
      1.1439062813751961e+000 5.2496871486001973e-001
      4.5151602577878658e-001 4.1960074745217357e-001
      7.8729800233404157e-001 1.1288163722033289e+000
      8.5877849584382360e-001 -1.1089055915712811e+000
      8.1303769616497501e-001 1.3970125548082444e+000
      -1.7479048963809096e-001 -2.2180120272176149e-001
      8.4958098047192987e-001 -1.1455190954613392e-001
      3.6837251888834804e-001 -1.7441243370264987e+000
      -1.5352494339250727e-001 -2.8261486197750313e-001
      -9.0518612795886383e-002 -2.8807383144456744e-001
      4.3808401307510736e-001 1.6119072200144605e-001
      -1.7388518906750042e-001 4.8629111387066126e-001
      -5.8143106399153044e-001 4.8629170813241052e-001
      -9.6461106577870537e-001 2.7428533830966670e+000
      -1.5399267910225847e-001 -3.4907468944035541e-002
      1.1231823343043222e-001 4.3474394601571298e-001
      9.7430787003356456e-001 -6.1779425720679526e-001
      -2.6208650228148295e-001 -2.0340337497697603e-001
      7.0046764450616317e-001 -8.7415770487815025e-001
      6.5938478978898762e-002 -4.3478122582024775e-001
      7.8929743576604072e-001 1.3351486437518789e+000
      -3.0420770163284200e-001 -1.3974801116199559e-001
      1.3603866551326235e-001 8.4660579032365102e-001
      -1.3296581919454231e+000 7.7951036194501500e-001
      4.8499754964692560e-001 7.5722098192358200e-001
      -3.7879277876533574e-001 -8.0446972982150242e-002
      -9.6450504300702433e-001 -3.7677615153317812e-001
      9.8522815426090288e-002 1.1684465885629467e+000
      6.4926055182768527e-001 -2.3714228508514698e-003
      2.2352281072173566e-001 5.5019126395610807e-001
      5.9822051309103608e-001 3.4106547355671429e-001
      8.3964811031346809e-001 -3.0903851968270346e-001
      5.0108092814511174e-001 -2.0462817491668273e-001
      -6.4717922981122855e-001 -1.0379209166292193e-001
      4.1768823652336434e-001 -1.4090104393595182e+000
      4.5824854456991835e+000 -3.7232613417684746e-001
      -3.2617767094271172e-001 -2.6644797667903075e-001
      -5.2483308632613124e-001 -9.7083748032768327e-002
      -1.9679041755069213e-001 -3.0812654728551725e-001
      -3.5837502267360039e-001 1.2514880914393001e+000
      1.4288130976354332e+000 -5.3863391578172826e-002
      -4.2997738844970551e-001 3.5267171324053276e-001
      -6.2896331448409182e-001 1.4718784156518619e-001
      1.4396965345223875e-001 -5.7744495774493787e-001
      7.6250103930798208e-001 -7.4478682511940186e-001
      4.2027899498778337e-001 -1.9200668147671535e-001
      -9.7021000388643686e-001 8.6118767099496762e-001
      -7.7923942848315875e-001 -2.1177929057277196e+000
      -4.0159489981179841e-001 4.0132890898815471e-001
      -7.8353887010659717e-001 -2.5272996970490585e-001
      2.1389750360546111e-001 8.4269776707604205e-001
      -2.5779603783611921e-001 -1.7268434061672910e-001
      -6.0665394185621846e-001 -5.7270047922513978e-001
      5.4971075068249209e-001 2.5203735108658948e-001
      -1.0024333090234305e+000 8.9507864058286335e-001
      -5.7915281567359123e-001 -1.9358840176858485e-002
      7.7605050185611368e-002 2.6784910097167440e+000
      -7.7807303501630720e-001 -1.5318877628941763e+000
      -6.5604920834348956e-001 -8.8947496530883985e-001
      -1.1654617000893350e+000 4.3255488136609477e-001
      -2.9713885040913141e-001 6.9517740246748516e-001
      -1.4219908118008892e-001 3.3550157855131840e-001
      -4.9635356479636426e-002 -1.0498864405723392e+000
      5.9515127790704736e-001 -3.9365636949215682e-001
      1.3813590601226227e+000 1.5135368108700014e+000
      -1.8368203449315290e-001 -4.1359800492779381e-001
      1.2655571284219886e+000 6.3062326110091982e-001
      3.8249824754412542e-001 -7.9372821087113021e-001
      6.8641891785461728e-001 -1.1665582013607159e+000
      -3.2950776140498178e-001 -7.4028652246959159e-001
      8.1940743878027278e-001 -4.6055170263900247e-001
      -1.6246752405347864e-001 -5.1742389608505990e-001
      1.8451775015452035e-001 1.8853795722911598e-001
      -1.1373717167271606e+000 3.3606097772701504e-001
      -3.2021361422342043e-001 1.0732052408354333e+000
      2.0472084278464595e-001 -9.8039199960690648e-001
      1.6259932590044142e+000 -2.9251270061469992e-001
      2.0056336685598328e-001 3.9743638269057646e-001
      -4.8096648067406607e+000 1.1417313389315709e+000
      -2.0037579652594739e-001 -5.4623323196130702e-001
      5.4155629902837654e-001 -7.0929779778564317e-001
      -4.0091213213758520e-001 1.9737528477291139e-001
      5.7121650889046505e-001 -5.1029869962962793e-001
      6.1776692539194922e-001 5.0557448321524445e-001
      -2.0288034845423658e-001 -5.7938862211561426e-001
      -2.4664029807847812e-001 -9.8754629079686207e-001
      1.6811867867654557e+000 1.6654848863669340e+000
      -4.5173319275533907e-001 -4.6403064253339239e-002
      -9.1328765974859871e-001 9.0654686950679353e-001
      -2.7039030386230617e-001 -1.4096918715285782e+000
      1.3639064839665547e+000 1.3225554372854080e+000
      2.2242594886880301e-001 -7.2921964638353953e-001
      9.5758531171676853e-001 -6.8847365160619911e-001
      3.5486444593149841e-001 -1.7909270337106336e+000
      9.6882363554308215e-001 6.5142114595917799e-001
      -4.3824752517181587e-001 3.0770088217329128e-001
      4.7669083780401933e-001 4.9539405554684673e-001
      -1.2102259836949223e+000 6.1402490862148973e-001
      -1.0778316925483928e+000 -2.6383202831055791e-001
      -1.1009990132449297e+000 1.1744139181044349e+000
      1.3684943275679831e+000 6.1674980369495225e-001
      1.7349864997233360e+000 8.1186997808610065e-002
      7.8194652526331199e-001 -4.8534454666380639e-001
      -2.1190185299288644e+000 -2.2558511647205344e+000
      1.3842385833409008e+000 -1.2431229931446965e+000
      7.5436473217203426e-001 -3.9150334640812262e-001
      -1.1722257659645281e-001 4.2029680605777681e-001
      -2.7635476544841473e-002 -1.2629439750600735e-001
      1.4685502271760380e+000 9.6936984246526481e-001
      1.2520492907290449e-003 -3.2623399844021800e-001
      2.2309907194532079e+000 1.9830479213721375e-001
      1.0772709468160380e+000 -1.2266632844474121e+000
      -6.7137492721870903e-002 1.3632340177416680e+000
      -1.6110166317680244e-001 5.2933093893467908e-001
      6.8303073925079205e-001 2.2918283736409586e-001
      1.2637805378387779e+000 1.1890998858796822e+000
      -7.3322506810529720e-001 1.8280633104181074e+000
      8.3621291825556843e-001 -6.8893864643408753e-001
      -4.9432524403010263e-002 1.5512581377412005e+000
      1.5442636859793026e+000 -8.8076073627251505e-002
      -3.9589076780558147e-001 -2.0777380440202866e+000
      5.7359202095015958e+000 5.8671977509140760e-001
      7.3132244899188292e-001 1.8966218722906719e-001
      -2.6605900429064960e-001 8.6674548643643867e-001
      -2.1619507162291596e+000 -1.1917717609770579e+000
      -1.2983217530344147e+000 7.1904306825965747e-001
      -1.6091912025315638e-001 -2.9273063667887556e-001
      5.6184367818901382e-001 5.7027245244076330e-001
      -3.1764680153539976e-001 9.2743420487638650e-001
      3.5607222518543791e-001 -2.9287718717546574e-001
      4.8785110455994529e-001 6.9907780901226779e-001
      -8.9595316450247997e-001 2.7185175778744339e+000
      -5.5202367929698859e-001 1.6496213303435709e+000
      -1.0637375059892459e-001 -1.1878390394317750e+000
      1.7364335731901757e+000 3.3486062129496330e-001
      2.2553265881115772e-001 -8.4243639793335323e-001
      4.4677272684761953e-002 1.7638825745134064e+000
      7.5822450201009750e-002 -9.6378362756851021e-001
      2.9075335750679621e-001 -1.9095313585819260e+000
      -5.7502880766566355e-001 1.2149345457854599e+000
      1.3799454029140410e+000 1.6553034464517959e+000
      6.8869044932266543e-001 -5.0201901692196726e-001
      1.0749886147922265e+000 3.4370257344977588e+000
      -1.3660328492889744e+000 -6.6705512370846221e-001
      -6.4435906168881119e-001 3.9216572331256178e-001
      1.2118261126808887e+000 8.3059324452361327e-001
      -1.7628644117323095e-001 3.4015383149756484e-001
      -3.9132571914971444e-002 4.8792251882988896e-001
      9.2632793328835594e-001 -1.6401983933356173e-001
      1.1375524539326989e+000 7.5398574870326279e-002
      7.0594251218705995e-001 -4.7090003812223918e-001
      -1.9002278526854071e+000 -2.3389765790690289e-001
      4.7301704738048139e-001 1.2604766364784030e+000
      -6.5304962511298104e-001 -6.2286963442718457e-001
      7.9274843799855965e-001 1.3271071135551753e+000
      6.7711944826034487e-001 1.0163964482957273e+000
      7.1131952138535348e-001 1.2335527029948534e-002
      2.4150810153296520e-001 -6.6888020975636575e-001
      -1.0036176392731000e+000 -9.1965098701423720e-001
      -4.7169428421514153e-001 -2.8681700740781352e-001
      -2.5602835197396190e+000 9.6382259259024095e-001
      1.4411636811843270e-001 -5.0591608950409672e-001
      1.4962047306879223e+000 -3.8707776030008363e-002
      -4.4055188358021707e-001 1.2261098725764734e+000
      -7.2472600014439186e+000 9.6593451814550438e-002
      9.2029061914267718e-001 -1.4971801238305613e+000
      -6.6284279950562824e-002 9.6084877940715907e-001
      -1.1402746072041914e+000 6.4420982889398251e-002
      -4.9262110417650523e-001 -7.7021405931001730e-001
      4.9945408669365376e-001 -6.3043712793325946e-001
      2.0594909750172308e-001 -5.7147261074382039e-001
      5.4732641823878769e-002 -4.4311024402822746e-001
      -3.2023242153997106e-001 -3.2500056277579470e-001
      -2.9808515058857032e-001 -1.6575535286404555e-002
      -1.9831159368656492e+000 1.4583865402975356e+000
      5.3847559081978302e-001 -9.8766247864613899e-001
      8.6482670453727006e-001 8.2498984596129843e-001
      -7.2910630821742461e-001 -1.2516975101443801e+000
      -2.2471151934528077e-001 -1.9352583439229132e-001
      1.1435942805732477e+000 3.5484638648948422e-002
      1.2259408257365904e-001 7.9837215248312055e-001
      -7.9970153935711608e-001 1.1193003461686821e+000
      -6.7702692631697281e-001 6.6155811158423983e-001
      1.1919432274592996e+000 -1.5941249317584269e-001
      7.2914573875653221e-001 -1.8074493414740009e-001
      -1.2253979699785194e+000 3.8689414520671637e+000
      -3.4503751879046729e-001 1.7649413876779712e+000
      1.7117442563788274e-001 -8.5831458532646149e-002
      1.3036317061006180e+000 5.0442431419496814e-001
      7.4301229550354606e-002 1.4539391571911697e-001
      5.0901827331244731e-001 -1.0513428383163975e-001
      6.9435770047287415e-001 1.9263678087601772e+000
      -1.5645892931333077e-001 3.8136211488662425e-001
      1.0044987075290144e+000 -5.9941071207964802e-001
      6.1047615054366466e-001 -9.7742891524367947e-001
      -7.8759429137049819e-001 3.2156854836936655e-001
      -9.7570172486122619e-001 -3.8678074720125344e-001
      -4.5591260515087323e-001 -3.0660300992533013e-001
      -5.7203103833428748e-001 5.2007543360234267e-004
      -1.3719977910885672e+000 -1.9185466559098507e-001
      -3.1624128000992974e-001 -1.2021331954844952e+000
      -1.0831447283164362e+000 1.7191709002846683e-001
      7.6024964016446595e-001 -4.9765128639198858e-001
      9.0333106642485694e-001 -5.2429854341964199e-001
      4.5412792559517717e-002 3.9343260084070475e-001
      -1.0604542912575077e+000 6.8892439518138271e-001
      -2.0995435250589276e-001 1.5676515700192613e+000
      2.3862634891976664e+000 -2.4275059172308056e+000
      1.7469474466441712e-001 -5.1151277086372682e-001
      1.3080021445594092e-001 -3.9915110673923428e-002
      -7.4798200938889314e-001 4.8318222899216334e-001
      1.4319723348440627e+000 -5.5072074399115023e-001
      2.9494437773345061e-001 -4.7824597226217969e-001
      1.2687756671864550e+000 2.3594662805160888e-001
      9.2285437799837355e-001 -1.5172678611713686e-001
      8.0055481293838368e-002 3.5255748599084286e-001
      -2.1163988279155288e-001 -2.1770624919520912e-001
      -1.4241855375872443e+000 -3.1328864879391044e-001
      9.7191710997902847e-001 -1.2799071028465345e-001
      1.2473493295719740e+000 -1.8642725921556245e+000
      -1.9510311010355657e+000 -2.5716674321159994e-001
      -4.1061828201161443e-001 4.0366475848681976e-001
      -5.2579965367730297e-001 5.5323283226375530e-001
      -1.4736107669263862e-001 -2.7648317183357024e-001
      -6.2807311510949304e-001 1.2989442557881243e+000
      -1.3397380207566902e+000 1.1121785710322500e+000
      1.5100601419854203e+000 -2.5513379125047170e-001
      1.0580296261499351e+000 -2.2798182914036436e-001
      2.5312577971061501e+000 -2.9427363310808432e+000
      -7.3947314765088656e-001 -5.3464048732759173e-001
      -1.0481166276905152e-001 1.6525664156002198e+000
      2.1015692804761701e-001 -7.0207827586282190e-003
      -9.8549377536812227e-003 4.4589231051520023e-001
      -7.5593342674745834e-001 -1.7193926035633070e-001
      1.5032426465037460e-001 -1.4956393955703333e+000
      4.2717830970188958e-001 2.0813047069097410e-001
      -3.0829316146993579e-001 1.4713748378620894e+000
      -5.9737975922658260e-001 8.5469693404094149e-001
      -3.4357427210707248e-001 2.9800885624127721e-001
      -5.4778747391360871e-001 2.2583573228703818e-001
      -3.0068608606576983e-002 1.6682292880097191e+000
      -3.8293776820362208e-001 4.0466420954966709e-001
      1.1699164480477389e+000 7.3621096941354169e-001
      1.1914725164824200e+000 2.2751807147581815e-001
      -4.8369539361359121e-001 -2.2762413659268410e-001
      4.7313314771175269e-001 -6.3689700795158299e-001
      -1.7321826945823970e-001 -6.4330419599081468e-001
      7.0692536366574121e-001 3.3232922594934389e-001
      2.3138639555122541e-002 -5.9719367938432266e-001
      4.4911446225062136e-002 -1.7065144278729039e-001
      -2.8335046771239973e+000 -2.1875994965759918e-001
      -4.4796293373904683e-001 2.3361290625191444e-001
      -6.1511122176425581e-001 5.3082627427134566e-001
      -5.9531562429777685e-001 -4.6785068405575239e-002
      -5.5910020468359765e-002 -2.9246668529626935e-001
      7.1450122669922747e-002 -3.9539702361150997e-001
      -6.7048520473284168e-001 -5.3299186821378353e-001
      -5.1937896167580344e-001 -2.3679483249996097e-001
      -4.0441034125638381e-001 7.4003835859109035e-001
      -5.3716253352894805e-001 -7.4473048281092147e-001
      -1.7467710805773660e+000 1.0254384886354335e+000
      4.9880594656905447e-002 -2.1408788963221279e-001
      4.0503738309949466e-001 3.3923972556176824e-001
      -6.7386536576675787e-002 2.0776398677551436e-001
      2.5885325817165644e-001 6.4306160995300243e-001
      1.6202095500481836e-001 2.7917293864175918e-001
      8.0491025690030060e-001 -6.8989657142460292e-001
      -3.9876778551766356e-002 -2.0926558388186212e-001
      7.2603784539574445e-001 1.0034136198868071e+000
      1.6287769268563315e-001 -2.8004612489376490e-001
      3.6610139610249842e-001 -1.8359823439928138e-001
      4.5359440826902164e-001 3.9301498018927949e+000
      1.2129809488959140e-001 -3.8912517878319997e-001
      1.3345201948019686e-001 -1.0955127719687123e+000
      6.6009110880825261e-001 -5.3688705845380513e-001
      -8.6395967356052938e-001 -1.1112311161513533e+000
      -7.5997073276656035e-001 -5.4770361490891717e-001
      7.5519759207721693e-001 2.0431680151147150e-001
      7.0088186035767275e-002 -9.5591579495966483e-001
      -9.8828645162937234e-001 9.6523847209671854e-001
      8.4466896007438386e-001 -8.1501047327913578e-001
      -2.7034698470768500e-002 -4.7599660885629747e-001
      -6.6194600512631818e-001 -4.3563865522742556e-001
      5.8794319092437497e-001 6.6816893738293470e-001
      2.2912142127356960e-001 8.8242815336931579e-001
      2.9709772610477658e-001 -2.3862320640481632e-001
      -1.6746295134860412e+000 -5.6314059321359566e-001
      -8.4534890457749501e-001 1.0208257167173060e+000
      -5.6047721883882262e-001 1.9070229990004686e-001
      -2.5685030963680905e-001 -3.7887252441902808e-001
      -8.7698984156595272e-001 4.4592313849469423e-001
      1.1258096214804167e+000 1.6576908900509728e+000
      -1.5682416002793393e+000 1.3201920422183822e+000
      1.0046399983174350e+000 -1.6275616719953667e+000
      -6.5407525147930856e-001 -3.4028918833231986e-001
      -6.2012806369796381e-001 -3.6860436676072200e-001
      1.8596775012055993e+000 1.2930967994402007e-001
      5.8299181465439276e-001 -8.6938495018639916e-001
      1.0342060654393886e-001 6.8019400838790878e-001
      8.1826499070887437e-001 5.1667353148333550e-001
      -3.7336999384223457e-001 9.7754686260227586e-001
      1.9065774538711744e+000 -1.3863372846675079e-001
      -8.2717792563553394e-001 1.1164803623827064e+000
      1.3915667702137420e+000 -7.9891497948209989e-001
      6.3671730000068416e-001 2.8111093105800322e-001
      -1.3414369305462381e+000 -1.6551346130318629e-002
      -1.7486521186357693e+000 1.2625729723513177e-001
      -9.3803223967702631e-001 -7.0934129953826985e-001
      -4.4742869532421731e-001 9.9354397469805822e-001
      -7.0904571673794203e-001 -7.6068824455489448e-001
      -1.1216337734151159e-001 9.7405389989809477e-001
      -9.8229591237226066e-001 -6.4292346319618665e-001
      1.3603267146185771e-002 1.2094674383415074e+000
      1.4333401168839774e+000 -7.7992244419757684e-001
      1.0425032211875360e+000 -1.5912816478487184e+000
      -8.7468483867694291e-001 1.0460626892172873e+000
      -2.3960095608668250e-001 2.1229722810519496e+000
      5.1839929876801860e-001 -5.6086842909780887e-001
      7.9930667632330288e-001 1.1435998247143719e+000
      2.0137376968746648e-001 9.4967347071401120e-001
      1.0769981424324369e-001 -1.0182494869372380e-001
      -1.4698957264642265e-001 1.4568113467560480e+000
      -5.7827393881378630e-001 1.1984904678982596e-001
      -4.6349736887775084e-001 1.2620721164235871e+000
      -3.7788517662541249e-001 4.1318278329291530e-001
      -4.1061118854974182e-001 6.0091630092130366e-001
      -9.9752530423632180e-001 -4.0247863793758748e-001
      -1.3337604668871106e+000 -4.5884927038737761e-001
      1.3683722357669523e-001 2.7255853581542544e-001
      4.2007508219315715e-001 7.5541978166170148e-003
      6.6385140644375651e-001 7.6883899286102486e-001
      1.1253407317166759e+000 -5.4685492370231681e-001
      6.6899277449071637e-001 -9.2501055586479974e-001
      1.5475578862076214e+000 -6.8834020390340950e-002
      -9.4857394835807329e-001 -4.6701253780460628e-001
      1.1394412694412688e+000 -8.3458358585223957e-001
      -2.1757765809821614e+000 7.9892650860215214e-002
      -1.4642323431071693e+000 1.0695090808309755e+000
      -1.0462314411706384e+000 -4.0753559113503046e-001
      -1.1549911587986983e+000 -1.9605857728742387e-001
      5.0714789252231884e-001 -1.0665122424376532e+000
      5.3211210709705559e-001 1.2405339841349802e-001
      -8.2092105248056280e-001 -1.1810933642578898e+000
      -1.0425159254261163e+000 -1.1646513026884349e+000
      3.5006339370573562e-002 5.9112795266960172e-001
      -9.0207368554950274e-001 -2.1014137039254699e-002
      -8.8397850005939560e-001 7.6527515262264012e-001
      1.3809938145335970e-001 -2.0236869201294169e-001
      -1.0310717742019071e-001 -3.6449275750837562e-001
      -2.2361394783838082e-001 8.8668420650733770e-001
      9.3589148490974994e-001 1.5002317558655469e+000
      4.4502735903447117e-002 5.4303997763402823e-001
      4.2322062765779173e-001 -1.2923158534598398e+000
      2.8250229377367386e-001 -5.3584154328490907e-001
      1.9160096342097768e+000 1.1650409694628823e-001
      -4.0820732315074426e-001 5.1471422906300426e-002
      -2.6872785056764065e-001 6.5547004547705845e-001
      3.5906380212027711e-001 2.7871312420112258e+000
      1.1949952436869764e+000 6.7054391832591942e-001
      -5.7375502256306499e-001 -1.8484353705329035e+000
      6.0707124319172467e-001 1.5335426097325517e+000
      -7.4901542020297751e-001 -1.2593234487697327e+000
      -1.0583172627789186e+000 1.8405952987738927e-001
      4.0746045709287193e-001 2.2825452604275190e-001
      1.7407688136354052e-001 -3.5125775909966080e-002
      5.9628212547361503e-001 -1.1147122847937281e+000
      -1.5381683385389250e-001 -1.2972184776923498e-001
      -3.2948909338786275e-001 1.2442777319233129e+000
      -1.6357896455747052e+000 9.4145153529379200e-001
      7.7988124491230104e-001 -9.6877125392081009e-001
      3.2496573493027731e-001 1.1673833022758735e+000
      2.7423769566382039e-001 1.1735107969373186e-001
      -1.0073019546090067e+000 -1.2917201727530223e+000
      3.5900456115851836e-001 -1.5435204065238664e-001
      6.2700979650914046e-001 -6.1624556304603939e-001
      -4.9915991842951285e-001 -6.4970120081138427e-001
      -7.4132234898441263e-001 8.1366617470403868e-001
      1.4539103917841054e+000 -7.2880833414262847e-001
      -6.6663068534576009e-001 5.4997463105614630e-001
      1.9271432890678601e+000 2.2290926879078308e+000
      3.0601521789370745e-001 8.5857943975490769e-001
      -5.4962851481379194e-001 -4.8036242888376357e-001
      2.0985008809011516e+000 3.7781433018914595e-002
      -9.8349044774517902e-001 7.1157274610605314e-001
      8.6167670945025998e-001 1.7573974484714090e+000
      -2.7394416832604235e-001 -3.2189103479015374e-001
      -3.1061233559758294e-001 2.1530704882624021e+000
      8.9277522793041908e-001 5.1124993784749984e-001
      1.6541911964097430e-001 -2.7315921689190326e-001
      2.1249056042316274e+000 -5.4054219986230334e-001
      -1.4796611382343703e+000 -1.8682361731909573e-002
      -1.7030502183098359e+000 1.7544733361949962e+000
      1.8719056658211226e+000 1.3859999884224117e+000
      5.1042282141933448e-001 -2.0003494522993401e+000
      -3.5746882730170276e-001 9.4943538720306608e-001
      3.9262596705254382e-001 -2.5026121949957397e-001
      -3.7359959009296778e-001 -9.0095305124724345e-001
      -1.5073610153835231e+000 -6.4265609566739212e-001
      -3.3203036389412871e-001 9.9542654602845226e-001
      5.0214584587442324e-001 -5.8970680889261651e-001
      -1.2572776171755669e+000 -1.3587623557591089e+000
      -2.3697827080951944e-001 2.2384277424450011e-001
      4.1123948292787205e-001 1.0805756309571883e+000
      -1.3916603186884516e-001 -5.6147048458368776e-001
      5.7049470512537070e-001 7.7120059360040605e-001
      2.1394306922032355e-002 8.6533962895213001e-001
      5.8386112003085233e-001 -7.1540928308008911e-001
      -8.1615222898456952e-001 8.6411789272494255e-001
      6.9021494150935747e-001 -1.8612491104780440e-001
      -3.3557425759777121e-001 8.8908890105781027e-002
      -2.6571784186229469e-001 7.7215407661823898e-001
      7.3646995087785927e-001 1.5494138204011949e+000
      -7.9970052783590362e-001 -8.8965249612133090e-001
      -5.8353628744717256e-001 -5.1750113136828790e-001
      -4.8691420440910294e-001 2.1188853606481936e-001
      1.0490175596402471e+000 1.2499445840957181e-001
      2.8238664685148951e-001 3.4844859302356687e-002
      7.9839995512997430e-001 7.0276966969226207e-001
      -4.6770081762266391e-001 -9.7425876667795189e-002
      7.7666452897343496e-001 -1.1297485608750069e+000
      -1.2387641449535738e+000 -2.9790036510458401e-001
      1.0838859126236648e+000 -1.5472822693513886e+000
      -2.8693385572697538e+000 -9.8173711044653522e-001
      -8.0580633591237738e-001 6.4409343512048900e-001
      6.5585169517172248e-001 -2.3879659595459374e-001
      -6.8691934155625656e-001 -2.3934216590647783e-001
      4.7155532748045786e-001 -1.4821342253978429e+000
      5.0219022089842535e-001 -3.1607100477082706e-001
      -3.6617021007527467e-001 -2.8093184457388087e-001
      2.4064874590155269e-001 -1.1285429592537681e+000
      -1.1265846462605018e+000 9.8167995749105813e-002
      -2.0978614187998298e-001 -8.5587111569276675e-002
      -8.6533817245231615e-001 -3.5946706006514659e-002
      9.8167897735451604e-001 1.0646269492682532e+000
      -5.5556393103399127e-001 -3.5537362659874122e-001
      8.9585674696054107e-001 -1.1847727387971341e+000
      -9.1749894515025032e-001 1.0200296849584887e+000
      6.4917317231246763e-001 1.1824705243691052e+000
      -5.4453548505342253e-001 8.4682748301013577e-001
      9.5099242929403513e-002 -3.9303143578049211e-002
      -2.7928253543816123e-001 -1.1546514794647840e-001
      -1.0041425531874719e-001 6.5281162697703388e-001
      -7.6241411672782089e-001 8.4270847033313079e-001
      -2.3125023718653892e-001 -1.1598432962525593e+000
      -3.7494319747706434e-001 -7.0274498180148359e-001
      -7.5570910292834903e-001 -5.0615612389242748e-001
      -1.6170912465142016e+000 -2.2422816322491951e-001
      5.0792754369101112e-001 5.2699101199536658e-001
      -1.0237360672032418e+000 1.4281607666303706e+000
      -2.3389188816664711e-001 -3.6921504032456293e-001
      -5.2835889323658292e-001 -1.7819061703151817e-001
      -4.6450679328045003e-001 -1.0965379064140435e+000
      -1.5490415166791444e-001 -2.4328290142094205e-001
      1.2369057257595546e+000 -9.2051077943529047e-001
      -8.1484220401607022e-001 -1.0831431217105755e-001
      4.8035592765519830e-001 6.5900601168855988e-001
      -4.9858143103435903e-001 -6.1621425982054956e-001
      2.4463986931664944e-001 1.9484423616427551e-001
      2.7304884272635449e-001 -3.5618006252824025e-001
      1.7456222286727949e-001 1.3401583986704840e-001
      3.0663226933324467e-001 2.9583545448585874e-001
      6.5790227742576160e-002 4.5428071507040269e-001
      1.0735375121830655e-001 5.2306788226396096e-002
      1.3549899447987039e+000 -3.9635356052030735e-001
      6.2125415063173794e-001 -2.3124660030826694e-001
      8.8251581335313389e-001 1.3459806146454427e+000
      3.5748420627508437e-001 1.4303099963616561e+000
      -4.5420199513859387e-002 8.2754231429801609e-002
      1.4632223949274747e-001 2.9825621170665872e-001
      1.6566881993078647e-001 3.7615754277481761e-001
      1.1785830288474737e+000 4.9190997199979553e-001
      3.9592719512933000e-001 -6.2605253433178609e-001
      4.2433587094066588e-001 6.3628656777104187e-001
      7.3301759368779362e-001 -7.0874487229350457e-003
      -2.5476740277897370e-001 -6.3142756424639856e-001
      2.9825762696548010e+000 -4.0367013054734985e-001
      -1.5539753783270158e+000 5.4681276307170101e-001
      -4.0062517264955488e-001 2.4197791933806745e-001
      1.0522623583783453e+000 1.0438929501186058e+000
      1.7004572783014438e-001 -1.5810946674023334e+000
      -1.2840105813891827e+000 2.7787438589496838e-001
      4.2688874695427398e-001 -2.3928381109680294e-001
      1.6072776484527127e-002 -7.0667333242349617e-001
      -2.8935262719095450e-001 -3.5859343094194979e-001
      -9.3989653050071098e-001 2.3724505087311837e-001
      -1.0180689613187481e+000 9.5709214755588656e-001
      -4.3655959417471926e-002 2.1297262348646204e-001
      6.6907487819650269e-001 -6.3303895388189380e-001
      3.1257241513366107e-001 4.8725040513671086e-001
      7.9601112451832434e-001 5.3592706413062026e-002
      5.6147100967799646e-001 -2.6582959698383934e-002
      3.4424685677544054e-001 1.1407380464996832e+000
      1.0233980452942735e+000 -2.0127327854579005e-001
      -6.2873336845429906e-001 -2.5964257415065639e-001
      8.7910590864533678e-001 -1.0251874420384419e+000
      2.5682122395728819e-002 -7.5436624320729717e-001
      -1.5160065226548250e-001 2.0660599994844897e-001
      8.3178232227201265e-001 6.0409451249043267e-001
      1.4692723274628205e-002 -1.0453543283926965e+000
      4.4250085672077261e-001 -2.2259155608732369e-002
      -9.9490423669991712e-001 -4.6114984150407684e-001
      -1.1655755186220623e-001 5.3428408522712101e-001
      -5.8515396651827950e-002 -1.1942719724504731e+000
      5.2708193976609385e-001 5.0809529841246093e-001
      -1.0592970735354694e+000 -3.3277293409899467e-001
      5.1490730628918999e-002 -9.7314851036431194e-001
      -5.1997127794271147e-001 -1.1577474150480668e-001
      6.2363546796055669e-001 -1.6771367858326050e-001
      6.7165545058112086e-001 1.3581704542998714e+000
      3.8714602327526454e-001 -1.5286743718615501e+000
      -3.7009857529245699e-001 8.2986215500480520e-001
      5.5376223833812888e-001 -8.8760345844518207e-001
      -8.3252576994501359e-001 2.7593387455579954e-001
      4.2655370500117451e-001 9.4856970381418425e-004
      8.3998753815872806e-001 1.8769311080279460e+000
      -2.7619799791424055e-001 1.6973094498645647e-002
      -2.9640762492311223e+000 -5.3522656062792495e-001
      -3.6176484495031097e-001 -1.3722251039046305e+000
      -1.1908346298915977e+000 -1.1705179507149623e+000
      4.9464689184384975e-001 7.5819440105072511e-001
      5.5867466267709442e-001 1.1842402305444824e+000
      -5.4520321454681719e-001 -2.3462655159969548e+000
      -1.5290835686586313e+000 2.9203953001782673e-001
      1.1044336133313344e+000 5.2688292435776418e-001
      -1.5524260098640252e+000 7.3805851712305293e-001
      -2.4341150963078512e-001 5.1249263160357972e-001
      -4.0279759209354887e-001 -4.6468229165597330e-001
      -2.4434909897420631e-001 1.5164781308498665e+000
      -2.0930753667914432e+000 -3.0495972090945622e-001
      4.0232828176863117e-001 -2.9782286211190927e+000
      -4.9409294745295584e-001 -6.3339973229772217e-001
      -7.7382149841495873e-001 3.0391917940098206e-001
      -6.7436078539816913e-001 -1.6246939109962524e+000
      -5.8772178333263270e-001 2.3246588341928123e-001
      1.1404135819167815e+000 1.2053521686151007e+000
      -1.1221163169736890e+000 2.1144529595423567e-001
      -1.7818095175735731e-002 1.5892183122952424e+000
      -1.1576716329282359e+000 -1.0262157378427603e+000
      -3.4581244107676851e-001 2.1045998350137984e+000
      -1.0468914325398677e+000 -8.7775955385483262e-001
      -1.0988212980542589e-001 -4.4917502295697953e-001
      -1.5442547666130126e+000 3.8669124431016094e-001
      -9.1186209862588572e-004 -1.2093698566348032e+000
      4.0060797193067088e-001 -2.2392490860829842e-001
      1.0371612706776943e+000 1.0692235126938686e-001
      -3.2768920816211450e-001 7.5753307610170106e-001
      1.2694103873472426e-001 -1.6004334642849780e+000
      -9.3042440035792895e-001 2.2448447452783169e+000
      6.4514890114980816e-001 -1.1771103477534228e+000
      -8.1261698152350770e-001 -1.9328199392275602e-001
      -3.5939011936206416e-001 -7.1761815395567885e-001
      -1.3650432651615749e+000 -1.0397243078090048e+000
      -8.1398554151361591e-001 4.8387212022210274e-001
      9.2989625313993496e-001 -7.5575991540886489e-001
      -2.5036084400259719e+000 -6.0260197674787130e-001
      -2.5292276044676942e-001 3.0806500557591276e-001
      -3.9574572646321388e-001 -1.4156329877183604e+000
      4.4569954220716856e-001 -6.8134637392191910e-001
      3.9965324093621357e-001 -1.6958335652558476e+000
      6.0805632741045568e-001 1.2629802060871151e-001
      2.0007426056409781e+000 -7.5910877328553072e-001
      2.5429764970931956e-001 -2.7010255585645920e-001
      1.3705434362800195e-001 -8.3648606880942267e-001
      -1.9990467053119746e-002 -1.6976505487402180e+000
      -1.0207923175445111e+000 2.1148210520751332e+000
      1.3663070495224252e+000 4.5624769809831200e-001
      -1.1117338280133628e+000 -3.8752886278784232e-001
      3.2738966808383116e+000 -8.9741784987716045e-001
      -1.1542852915557871e+000 3.2338684608935581e-001
      2.5972865025853547e+000 2.0973588831974147e-002
      6.1211056427914312e-001 -2.5087961958382001e+000
      6.2569835381530647e-001 2.7556543808597578e-001
      -6.9973706645764588e-001 -4.8743198702407498e-001
      1.5886503935643126e+000 -4.9139572908841328e-001
      1.4064106816426736e+000 -5.5099285969472900e-001
      -1.2702785433041803e+000 1.1951054862689585e-001
      -2.3724445229775273e+000 -3.4140895700757498e-002
      -8.5042738020793429e-001 -4.0219324121540412e-001
      -2.8281580920839022e-001 5.7084248757505174e-001
      -1.0205760240441395e+000 -8.5070900142964012e-001
      -1.0177871752084726e+000 5.2880509568717249e-001
      6.3684504224121352e-001 -1.7389946126117548e+000
      3.3726337761022329e-001 2.6465832262286382e-002
      3.9160510508714448e-002 2.1278508004164548e-001
      1.4966421127629850e+000 -7.0717999874929105e-001
      6.2250464706232744e-001 1.7276438415111972e+000
      -3.5908464438415538e-001 -1.4337497160311330e+000
      -1.1327759711405909e+000 5.5361549844816138e-001
      1.3643778919802971e+000 -6.2600932125613773e-001
      -9.2936917344830350e-001 2.5037637173543009e-001
      8.1404867080192178e-002 -5.6116493405584078e-001
      -2.3358310546848289e+000 5.3289263364778761e-001
      2.4217228117637113e+000 -1.7012130657453969e-001
      7.7861088592531574e-002 3.5410932380943239e-001
      -1.8486841694453604e+000 1.1088141575375046e+000
      1.3461363157427639e+000 8.2957147945428833e-001
      -2.1115250529594860e+000 2.4151927997760820e+000
      -1.5178267669245473e+000 3.8021370916195252e-001
      -3.3499027626940805e+000 -1.8972476167403296e+000
      1.5632366750356286e+000 -1.1191948849355959e-001
      5.7294221445859883e-001 7.7961289537552536e-001
      -8.1283792541005193e-002 2.8498108366605619e+000
      3.0228847936066230e+000 3.1915102677816618e+000
      -8.2260456630756318e-001 -2.2983906517112573e+000
      -3.4890995836077171e-001 -1.8007389452363315e-001
      3.4582435865177406e+000 2.3980260176987018e+000
      4.5017838914847613e-001 1.7723608260255388e+000
      -3.6926403008570208e-001 -1.3757823619045029e+000
      3.4575791068677626e+000 7.7954391551860347e-001
      -5.9538527107564465e-001 -9.5938198812564379e-001
      6.2383743748175791e-001 1.3354832301160393e+000
      -1.9058090266558705e+000 6.4604490857096675e-001
      -1.0388196447375293e+000 -1.6047087836072149e+000
      2.4335223827034413e+000 -2.4402853841320193e-001
      9.9480976057542791e-001 2.2310178005462666e+000
      2.4184582414841662e+000</_>
    <_>
      -1.5387416990402863e-001 -5.5547525250574888e-002
      1.5155209966594890e-001 2.2511050106413744e-001
      -2.7290549441812867e-001 3.6992354508608033e-001
      3.9660806220413053e-001 3.7047916690088895e-001
      2.6067852921379404e+000 -2.9547301901267220e-001
      -7.1446037818907349e-001 6.6724471574723487e-001
      4.3943573009264753e-001 -8.8151461128272812e-001
      8.8556903563886069e-001 -1.2355001265544331e-001
      1.7483323762808247e+000 3.2931542789780760e-001
      1.2504027888137517e-001 1.5842943438265982e+000
      1.6247284547982814e+000 -1.1102720758422993e+000
      3.7839147840117393e-001 -6.1054827509300669e-001
      -3.1190249869973697e-002 2.2092278275235460e+000
      -4.8311085214786453e-001 -1.5957586995714663e+000
      -1.0364188978031514e+000 2.3474314940596526e+000
      -8.0793678106363542e-001 -1.9390385889173924e+000
      1.8637811657429085e-001 7.8180618502777521e-001
      3.1272806512576135e-001 1.9247676250976082e+000
      -9.3978605319948316e-001 1.5551956720451701e+000
      8.4649015678347694e-001 7.2392890781171970e-001
      1.9638927136506865e+000 -7.5481427679713498e-001
      -7.3860165504746855e-001 2.3573906743114326e+000
      1.1679940321986311e+000 8.4166118200646434e-001
      4.9891862154892636e-001 1.5248411599857035e+000
      7.8353767637987692e-001 1.9248535467595601e-001
      -7.7959243700772973e-001 -2.1216830372563651e+000
      3.3466540039724374e-001 -7.3473143987998824e-001
      1.9470358391634304e-001 -9.4529354018837952e-001
      -4.6621053272285007e-001 1.2943097828268979e+000
      -1.1393683568626436e+000 2.2282647707865624e+000
      -6.1346617941306281e-001 -2.0454229479096830e+000
      -1.0361881716870145e+000 -4.2341504044032065e-002
      -1.7369334178507942e+000 1.5124854782783823e+000
      2.0140252823947105e-001 -1.5335108877738994e+000
      -6.8009969364910705e-001 -8.9077027795735297e-001
      -1.6633643882468208e+000 1.3079172157211434e+000
      -7.8538751636595594e-001 -1.0498114862551666e+000
      8.9877922765923246e-001 -5.3219599314011201e-001
      7.4525229176089702e-001 1.7871139296688929e-001
      9.0180658807423608e-001 -6.9106164578582752e-001
      1.8680877300264982e+000 -7.5398637850941819e-001
      -3.5655414259343776e-001 -8.8640466539649951e-002
      -5.4044755458286908e-001 -5.6206367844065498e-002
      -2.1614706687445334e-001 -1.8858813471835170e+000
      6.1960516715520664e-001 -5.1807362431870529e-001
      -3.5627788626607731e-001 8.6856743101836642e-001
      8.3984684362894713e-001 -2.6595802907354900e+000
      1.5220892546881024e+000 1.6878478967087587e+000
      -1.5723632072629282e-001 1.4802070015626816e+000
      -8.0984058532874437e-001 -1.8186923047070092e+000
      2.9320284882617148e-001 -1.6188320547753494e+000
      -1.0210876518100431e+000 1.7652619158171987e+000
      1.0501967258303622e+000 1.0097153609714590e-001
      -2.3158367867974738e+000 -1.2128497439609598e+000
      1.6617611936289340e+000 -1.0952755636815323e+000
      -1.8714350565654805e+000 -2.6507086359260166e+000
      -1.1573910335644255e+000 -2.0542911736696912e-001
      -2.7682545907128348e-001 1.5879449874856233e+000
      1.1269080058617491e+000 2.0103333630380358e+000
      2.5744035113936131e-001 -4.7397101609841780e-001
      -6.8885858042339743e-001 9.3834652200661883e-001
      2.0046871609137846e+000 9.1953682191594699e-001
      1.6857161658413251e+000 -2.8340033248769352e+000
      9.3585721868922467e-001 -1.2829108975481529e+000
      -1.0405114079615865e+000 -1.2784759919316235e+000
      -2.1939650977139416e-001 -1.9847687518752490e+000
      -6.3971105313032806e-001 2.2865828579935615e-002
      2.2979471362478246e-001 -2.1220310775449164e-001
      2.3481821838251751e+000 -2.0517456750495087e+000
      -1.2180842457991607e+000 3.6665683368817339e+000
      -2.9006087875411586e+000 -1.5047558479098686e+000
      1.1895546036027741e-002 1.9005591859304414e+000
      -1.9568878095718206e-002 -5.5013676939766720e-001
      1.1899216205941259e+000 -1.7984945343338651e-001
      -2.7212970691455678e+000 5.5990879141497907e-001
      -1.0454323038019777e+000 5.4246274167325603e-001
      4.7032824611990215e-001 8.5509985912051478e-001
      -5.3927557249781144e-001 2.2401230790473630e+000
      5.4253445803074263e-001 2.1596049550718788e+000
      1.1377643055440976e+000 -2.6958098250912088e+000
      -1.4680246015450198e+000 4.0519577684733482e-001
      -2.0116163327629047e-001 -7.4143335940159028e-001
      -1.4050902785243953e+000 -1.0008214154686090e-001
      -1.2223590360417009e+000 -4.0590748167676050e-001
      -5.7428157155482540e-001 -4.0674387145756885e-001
      8.5531603256804745e-001 2.2870570034801387e+000
      -5.4835532534857223e-001 -1.6930783970648571e+000
      -1.0070392043097829e+000 3.5674801957913116e-001
      -1.8151259822961705e+000 2.0771072151871275e+000
      1.9479725138143664e+000 -6.6619013248222292e-001
      -5.7142088913191313e-001 -9.2621706624358910e-002
      -1.2017728141367194e+000 -4.6028103333351700e-001
      -4.7981698011062590e-001 1.6842634669648617e+000
      -1.5598516544855151e-001 -1.1231283198570499e+000
      -2.0616538578329338e+000 9.3566406265700730e-001
      8.2624782339131941e-001 -4.2992103358722150e-001
      8.1739465678481882e-001 -1.5298738086040211e+000
      -5.7313544554197848e-001 -7.4494507583203551e-001
      -1.9248849820824145e+000 -2.6115742887333265e-001
      9.5624357389338305e-002 5.8662213621298587e-001
      6.4865184026010014e-001 -1.9586098728088392e+000
      4.4836125200417509e-001 -1.5823038263587090e+000
      1.2263628938835736e+000 -1.1720758539887490e-002
      7.3020994877638445e-001 1.3347197399480286e+000
      -4.4329011336796698e-001 -3.2290908675714109e+000
      8.8039147256766842e-002 2.3527054006994681e+000
      -9.6225748521395005e-001 -1.4253718732951517e+000
      1.1883370037561229e+000 4.4401764043271640e-002
      8.8398457048143397e-001 1.7475245695936077e+000
      2.2706717341100471e+000 -1.2402244922142738e+000
      1.8123886435144370e+000 -2.9151693120276665e+000
      -1.4233393613686227e-001 1.0090810520751947e+000
      1.4112197783402036e+000 4.7106405818799529e-001
      -1.0973557216306129e+000 2.2652162634144681e+000
      7.6154207603957899e-002 -1.7568545933537177e-001
      -2.5448132744617444e+000 1.9561792954949726e+000
      6.5151531163720355e-001 5.0625686080004439e-001
      6.7392276986719890e-001 -1.3977964752196896e+000
      -3.2748187685757149e+000 -2.1591410167479766e-001
      -2.2366832740040854e+000 -4.3993060395627248e-001
      6.6039406842084780e-001 2.0480700220121442e-001
      -1.1222698339143917e+000 2.1241971729656757e+000
      -1.1504715235688703e+000 1.3031466833294212e+000
      -6.6845899000307740e-001 -1.9051523569845612e+000
      -6.0247921521838617e-002 1.5270262866520288e+000
      -1.9010629175218072e+000 -8.0533281543175561e-001
      1.3885297276875597e-001 -1.9992587567104432e+000
      2.5075529695931622e+000 -2.9620666653886802e+000
      2.0049714516893333e-001 3.1030048010346573e-001
      -2.7059788588758180e+000 8.7042303746281718e-002
      -9.6087474604103096e-001 3.7459749427740202e-001
      -7.2093707994335565e-001 3.7946438155903789e-001</_></weights></my_nn>
</opencv_storage>
