%YAML:1.0
my_nn: !!opencv-ml-ann-mlp
   layer_sizes: !!opencv-matrix
      rows: 1
      cols: 3
      dt: i
      data: [ 48, 48, 48 ]
   activation_function: SIGMOID_SYM
   f_param1: 6.6666666666666663e-001
   f_param2: 1.7159000000000000e+000
   min_val: -9.4999999999999996e-001
   max_val: 9.4999999999999996e-001
   min_val1: -9.7999999999999998e-001
   max_val1: 9.7999999999999998e-001
   training_params:
      train_method: RPROP
      dw0: 1.0000000000000001e-001
      dw_plus: 1.2000000000000000e+000
      dw_minus: 5.0000000000000000e-001
      dw_min: 1.1920928955078125e-007
      dw_max: 50.
      term_criteria: { epsilon:9.9999997764825821e-003, iterations:5000 }
   input_scale: [ 1., 0., 3.6068242965005950e+001,
       -3.9603314146481332e+000, 3.0710247829391605e+001,
       -5.0738220186051084e+000, 3.8518708058772113e+001,
       -5.2057044930026874e+000, 1., 0., 2.6573238719116965e+001,
       -3.8482272481376816e+000, 2.0605376070804176e+001,
       -3.6520069498838970e+000, 2.5704684893905846e+001,
       -4.4812150285750239e+000, 1., 0., 2.3499240565440356e+001,
       -3.4064070177560550e+000, 2.4358511286232329e+001,
       -4.3045512671270894e+000, 2.5764293253545947e+001,
       -4.4004315385582320e+000, 1., 0., 3.0553171004113423e+001,
       -3.4174277416240662e+000, 2.3674011496974206e+001,
       -3.7661623836688003e+000, 2.9898471319715529e+001,
       -4.0223047749673695e+000, 2.2309744675673048e-002,
       -2.0432379661215161e+000, 1.9627435073913197e-002,
       -2.9657054396682838e+000, 2.5586412943401794e-002,
       -4.1964275868473280e+000, 2.6229254209107281e-002,
       -2.0908649992789869e+000, 1.9018698200857498e-002,
       -1.8190433894210154e+000, 2.6222033762552988e-002,
       -2.8798348579723818e+000, 2.3243026264408845e-002,
       -3.0432094287990501e+000, 2.0321514884747961e-002,
       -1.9603149333572121e+000, 1.8257571034860164e-002,
       -1.6521276029444960e+000, 2.1988127527529190e-002,
       -2.2197014739040717e+000, 1.9706643822333576e-002,
       -2.2320730125366124e+000, 1.7825995112825569e-002,
       -1.6482806381074162e+000, 2.0667093724996068e-002,
       -1.7272523580665464e+000, 1.6961841881473705e-002,
       -2.2206443391225372e+000, 2.2249179838107515e-002,
       -3.4644197925917215e+000, 2.0444435246772731e-002,
       -1.8901902607403729e+000, 2.0827465587561884e-002,
       -1.5733067504844249e+000, 2.0594441571904026e-002,
       -2.1355406187985877e+000, 2.1475424500767053e-002,
       -2.9288183934146104e+000, 1.7610608613763311e-002,
       -1.9133926258853837e+000, 1.9733506731383892e-002,
       -1.8027545074455755e+000, 2.2395006274001757e-002,
       -2.0473514735692406e+000, 1.9009502474899589e-002,
       -2.0221358257674438e+000, 1.6870662878097600e-002,
       -1.9127957571187058e+000, 2.3185265942604644e-002,
       -2.2182503190586993e+000, 2.5134412415709288e-002,
       -3.1932014253537866e+000, 2.2255627436498174e-002,
       -2.7623684774181534e+000, 1.7526307673751910e-002,
       -1.8895988618455621e+000, 3.2467553430577334e-002,
       -1.9410726818470658e+000, 1.8426458221133125e-002,
       -2.4949424431414253e+000, 2.2135008439594202e-002,
       -3.3914153180724260e+000, 2.3934606566320165e-002,
       -1.8864060165245238e+000 ]
   output_scale: [ 5.2631578947368418e-001, 4.9999999999999994e-001,
       5.2631578947368418e-001, 4.9999999999999994e-001,
       5.2631578947368418e-001, 4.9999999999999994e-001,
       5.2631578947368418e-001, 4.9999999999999994e-001,
       5.2631578947368418e-001, 4.9999999999999994e-001,
       5.2631578947368418e-001, 4.9999999999999994e-001,
       5.2631578947368418e-001, 4.9999999999999994e-001,
       5.2631578947368418e-001, 4.9999999999999994e-001,
       5.2631578947368418e-001, 4.9999999999999994e-001,
       5.2631578947368418e-001, 4.9999999999999994e-001, 1., 0., 1., 0.,
       1., 0., 1., 0., 1., 0., 1., 0., 1., 0., 1., 0., 1., 0., 1., 0.,
       1., 0., 1., 0., 1., 0., 1., 0., 1., 0., 1., 0., 1., 0., 1., 0.,
       1., 0., 1., 0., 1., 0., 1., 0., 1., 0., 1., 0., 1., 0., 1., 0.,
       1., 0., 1., 0., 1., 0., 1., 0., 1., 0., 1., 0., 1., 0., 1., 0.,
       1., 0., 1., 0., 1., 0., 1., 0. ]
   inv_output_scale: [ 1.8999999999999999e+000, -9.4999999999999996e-001,
       1.8999999999999999e+000, -9.4999999999999996e-001,
       1.8999999999999999e+000, -9.4999999999999996e-001,
       1.8999999999999999e+000, -9.4999999999999996e-001,
       1.8999999999999999e+000, -9.4999999999999996e-001,
       1.8999999999999999e+000, -9.4999999999999996e-001,
       1.8999999999999999e+000, -9.4999999999999996e-001,
       1.8999999999999999e+000, -9.4999999999999996e-001,
       1.8999999999999999e+000, -9.4999999999999996e-001,
       1.8999999999999999e+000, -9.4999999999999996e-001, 1., 0., 1., 0.,
       1., 0., 1., 0., 1., 0., 1., 0., 1., 0., 1., 0., 1., 0., 1., 0.,
       1., 0., 1., 0., 1., 0., 1., 0., 1., 0., 1., 0., 1., 0., 1., 0.,
       1., 0., 1., 0., 1., 0., 1., 0., 1., 0., 1., 0., 1., 0., 1., 0.,
       1., 0., 1., 0., 1., 0., 1., 0., 1., 0., 1., 0., 1., 0., 1., 0.,
       1., 0., 1., 0., 1., 0., 1., 0. ]
   weights:
      - [ -3.5297363255144862e-002, -5.5051923574231179e-003,
          5.5051939486090674e-003, 3.1096029899603934e-002,
          1.4487944648828539e-002, 8.4777161637818593e-003,
          9.6319206366204009e-003, 3.7737883566653828e-002,
          1.6743179161852979e-002, 1.2444867374627799e-002,
          -1.6294452638336298e-002, 6.9774527750476089e-003,
          -2.0356192903898243e-002, 2.1789842201745221e-002,
          -3.4445845550275550e-002, -6.4663172647703394e-003,
          3.2492397468565214e-002, -2.0657061660899544e-002,
          -2.0953052753514775e-002, 5.5364996469581124e-003,
          3.1461209265197659e-002, -7.8561941864058876e-003,
          2.8209068841011407e-002, -4.0963247484526150e-002,
          -3.1578987168086527e-002, -3.9753518687737813e-002,
          4.0647527896646232e-002, -3.3084947958803415e-002,
          -4.2197911757931222e-002, 2.8847010261956369e-002,
          2.1416805630717555e-002, -3.7293712751453767e-002,
          -3.1083521510348093e-002, 1.6070533637789289e-003,
          -3.3035804570531360e-002, -6.1594339643588581e-003,
          -1.5680845319664467e-002, 3.0670231422737677e-002,
          -2.5382946148169553e-002, 1.9785443627515484e-002,
          -2.0110694225106786e-002, -3.6915213616965696e-002,
          -1.2101027381606070e-002, 3.7744457904540472e-002,
          -2.4575172780359034e-002, 3.7969667429985574e-002,
          1.3497119609839226e-002, 1.4344927963408241e-003,
          -1.4960478284496373e-001, 1.8196483346241490e-002,
          5.8848324615765734e-003, -7.5464782760398197e-002,
          -1.0470981078972927e-001, -5.7000912562073416e-002,
          -2.5158083017915403e-002, 6.8302067835053243e-002,
          -9.3841790497676387e-004, -3.7367563272787861e-002,
          3.6946763402167432e-002, -1.0702815769223963e-001,
          7.5437260257544436e-002, -6.6684366980213489e-002,
          1.6788248909293143e-002, 2.7598180107803894e-002,
          -4.0640272392873607e-002, -1.4816800911212081e-002,
          8.6344975939031520e-003, 1.4979332399555273e-001,
          4.2059052729183574e-002, 7.5800139208518471e-003,
          1.2238291184702516e-002, -8.4414808297620783e-002,
          9.4434341475925887e-002, -3.5360476644150832e-002,
          1.1612212195220059e-001, -1.2166813773342588e-002,
          -5.3803193741465650e-003, -2.8060643688931918e-002,
          -8.2797092778830374e-003, -7.3705860847797858e-002,
          -5.5172890395971244e-002, -2.0848531177993963e-002,
          -1.3943953634012652e-002, 1.3518277930474431e-002,
          4.7565646426037271e-002, 7.2128632419693611e-002,
          6.0612070339826553e-002, 7.0213539802023314e-002,
          -3.6441256085421245e-002, -7.6819603508033282e-002,
          4.1329831294401251e-002, -6.1853367004125963e-002,
          -6.2289288050419403e-002, -2.5949652266815483e-002,
          -3.5926492845854058e-002, -3.2656539512615469e-002,
          -1.1651154536167861e-001, 1.1952296835114549e-001,
          -2.4602198518591867e-001, -1.2037557313372094e-001,
          -2.3116081396023547e-001, 9.8128016795968165e-002,
          -1.3482334685000338e-001, 2.6478348031143038e-002,
          1.7051481449049135e-002, -4.5632517054815100e-003,
          2.4001765124714639e-001, -1.4432699607213811e-001,
          -9.8362247274720788e-002, -4.6120839467528603e-002,
          -3.3160393730546754e-004, -2.1839845766543253e-002,
          3.3693925591330345e-002, 2.8416402472691952e-002,
          4.2136580766798590e-002, 1.7999234524444424e-001,
          9.8249812924500718e-002, 7.1605352096558134e-002,
          -3.5614042839047337e-002, -1.1610448030245375e-001,
          1.5239120713871757e-001, -2.9910601542056360e-002,
          -8.4167150574660406e-003, -1.2622470100622726e-001,
          6.3383803579149418e-003, 4.2827456298507489e-002,
          -5.6326708464158610e-002, -2.2918610416814281e-001,
          -6.1793938249898046e-002, -4.1807804491307422e-002,
          -1.3662209879023326e-002, -3.1836888222176576e-002,
          9.4342291311691584e-002, -3.6391700708433054e-002,
          -1.8946269744010327e-002, -3.9655877810569617e-002,
          -4.9472448757269683e-003, -1.6230717820339964e-003,
          -1.7573447475504503e-002, 6.6816765236870190e-002,
          -4.5224461313943445e-003, -1.2091371604213116e-001,
          -4.1572970489618909e-002, 3.4411912807094214e-002,
          1.1306859047510776e-001, -7.7112623256890944e-002,
          9.3895662723582643e-002, 4.5280182558283144e-002,
          1.0728868882322469e-001, 1.0042875932344507e-002,
          6.5421747755996851e-002, -5.5084698882022338e-002,
          2.4794550495634868e-002, 3.0208141261030392e-003,
          -8.7063105952223857e-002, 2.2346404448603627e-002,
          3.9900769458559630e-002, 7.4504342176914158e-003,
          1.1798926282479651e-001, -3.7922285247181803e-002,
          -8.3520482873735397e-002, -6.7226935801072793e-002,
          -6.7796728073144076e-003, -9.9829682713297854e-002,
          -7.8845780787179895e-002, 5.3748827940655740e-002,
          -4.3370418487755566e-002, 3.9756069951835359e-002,
          -7.3882028771242406e-002, -2.5981277893182012e-002,
          3.6027985892088298e-002, 1.3197411570443613e-002,
          2.0862119857082997e-002, 2.4940781353065690e-002,
          -4.3860765901249264e-003, 1.8902865665234911e-001,
          -8.2450951109196507e-002, -4.3850798622766286e-002,
          -4.3341933431112471e-002, -1.7345934009402944e-002,
          6.1632588029521575e-002, -1.1666200794483536e-002,
          2.9806348654124463e-002, 1.5321681041759099e-003,
          -9.0070469518606408e-002, -5.6101650600242609e-002,
          4.2973536803376108e-002, 3.7897401587382508e-002,
          -5.8662735044873363e-002, 4.7439453344526407e-002,
          6.3464084580721423e-003, 1.0069967552369474e-001,
          2.3129520134623383e-002, -3.8799367202992777e-002,
          1.8218402560574304e-002, -1.7329920355347063e-002,
          -9.6883990233873965e-003, -1.9365868582641360e-002,
          -3.4267077883912899e-003, 2.1872068499190097e-002,
          2.0561526350506249e-002, -7.5695876504460408e-003,
          4.7887686237775499e-002, 2.3923792710354514e-002,
          -1.8157997215385489e-002, -3.6168439306773327e-003,
          -1.8679143323984734e-002, 9.6524831818761772e-003,
          2.0134941220597273e-002, -3.5472715332531116e-002,
          1.2069287733689132e-002, -2.9535780575504447e-002,
          -1.2175638618344234e-002, -4.0858789114350515e-002,
          3.9040203845698639e-002, 2.8104205836545471e-003,
          1.1124498048226551e-002, -3.8816695727753900e-003,
          -1.5878100351381558e-002, 1.1629084299602297e-002,
          1.0616163246855513e-003, -2.5983983687026691e-002,
          -4.9978319325404488e-003, -2.2930277240319749e-002,
          3.5723744838947170e-002, 2.7376820012903442e-002,
          -2.3660757805976717e-002, -7.6279477206708177e-003,
          4.7288396997393510e-003, -3.2794968618990679e-002,
          -8.4048737061950228e-003, -8.7767784428089083e-003,
          1.2926727374797454e-002, 3.9928320258022162e-002,
          3.0364971238177794e-003, -9.5869766185643322e-003,
          6.6545501404853599e-003, 2.6398411888162090e-004,
          2.6234720878687612e-002, -3.1474807871922653e-002,
          7.6154683126561679e-002, -3.9344550069024486e-002,
          -1.0207782406018412e-001, 8.0710844493205980e-002,
          1.7105029438761153e-002, 1.0172697353353984e-001,
          2.0951394044308146e-002, -9.3241231004340036e-002,
          1.2393498889048966e-003, -4.9294839746369487e-002,
          -5.4124882931623946e-003, 7.9165568635954864e-002,
          -4.8859036836385643e-002, 1.9886356335960649e-002,
          5.1908340389524001e-002, -3.6692634177668999e-003,
          -1.4040837457131683e-001, -1.1211545683202985e-001,
          -5.5975307874945979e-002, -3.1463127768723648e-002,
          2.0865968008020305e-002, 6.8726210243319374e-002,
          -1.2863364784322553e-001, -4.3175310795380624e-002,
          4.9801862966437956e-003, -1.4602395637798535e-001,
          -9.4592281246802523e-002, 2.3460291846238743e-002,
          -4.0175928790357356e-002, -1.1789318753553335e-001,
          1.6710771231350868e-002, 4.0235195933165595e-002,
          -7.7260534615284759e-002, 1.9205226014835739e-002,
          1.1260745749634213e-001, 1.2147933236011963e-002,
          1.2312720326917133e-001, 7.8789278947225483e-002,
          -8.3096733323411068e-002, -6.7780224115121995e-002,
          -3.0143780325480794e-002, 1.1330611537451152e-002,
          1.0694256074444412e-002, 2.1209878111023980e-002,
          2.5838977761007055e-002, 5.3155074950346867e-002,
          -3.0112001173679920e-003, 7.8666283610486429e-002,
          -2.0899579712294311e-001, 1.5185300262324633e-001,
          -2.2766299175550089e-002, -2.2072038929601034e-001,
          2.6069424877643181e-002, -8.8874196263181576e-002,
          -1.0962216665388093e-001, 8.8042524215723214e-002,
          6.4405199483820305e-003, -5.0154274260834637e-002,
          1.4051060631332980e-002, -1.2806822709098201e-001,
          5.0248308708829861e-002, -1.9830450001520925e-001,
          -1.9336621618887342e-002, -2.7615408051180231e-002,
          -1.0258084706464134e-002, 6.0055330827987412e-002,
          7.4342263633072087e-002, -1.3543329476822796e-002,
          -1.2691777393191411e-001, 6.8334242235436840e-002,
          2.0821218330137115e-001, -8.9197591886433530e-002,
          2.0090400875424688e-001, -6.7371006433368422e-002,
          1.4887050623929188e-001, -1.0076977597303005e-001,
          8.3502414498383248e-002, 2.8914386876046826e-002,
          4.3569632197859247e-002, -1.5676324221040128e-001,
          -1.3601958279501250e-001, 1.5723035456234262e-002,
          -1.9330920028082763e-001, -4.0664109426450191e-002,
          5.6496581628178263e-002, 5.8445301717303430e-002,
          8.1585623568642018e-002, 1.6869105428592865e-001,
          -1.6203351262856588e-001, 8.6516143232070367e-002,
          1.4588463644455985e-001, -7.6805610823019232e-002,
          -7.1977252935659236e-002, 6.8902681810814395e-002,
          1.2490860055178346e-002, 1.2105510342546465e-001,
          7.0533950370131118e-002, -4.2773661747229248e-002,
          -2.1897195078843492e-002, 3.5234115977096581e-002,
          1.1110237600046763e-002, 6.2131916471680398e-002,
          3.4040449212481658e-002, -1.9971634766045465e-002,
          4.6626871909198606e-002, -4.4123431232672539e-002,
          -1.7684016711767136e-003, -7.1176707584753637e-003,
          -4.7663759299900618e-002, -2.6990298208827854e-002,
          2.6362724635658946e-002, -1.6907306115868076e-002,
          -1.6009793662352420e-001, -4.7128564430731233e-002,
          5.7715324315837674e-002, -6.5185145155712651e-002,
          -1.0805398219345747e-001, 4.5317773416234483e-002,
          -4.4029387308568580e-003, 3.0836977865949397e-002,
          7.2701637725151426e-003, -7.8379636708330425e-002,
          5.6498094825448465e-002, 9.8492901134825436e-002,
          -2.3688793331286470e-002, -2.9341633350119824e-002,
          8.0713971104366261e-002, 3.2713032971097747e-002,
          -1.1076280231038815e-001, -5.3773473439770493e-002,
          -5.1714897077308773e-002, 1.3570936498120267e-001,
          1.1566061645192463e-001, 4.7213655465037141e-002,
          -4.2128358989536964e-002, -9.2697293204607838e-003,
          -2.5181116427337006e-002, -4.2814399477855529e-002,
          4.6990157522324258e-002, 4.3392608823223247e-003,
          -2.9651470141241146e-002, 7.0031567330593417e-002,
          4.6493958182109996e-002, 4.1993130015732925e-002,
          -7.0897293595901991e-003, -3.1848331132356210e-002,
          -2.3242459822805334e-002, -3.0464492582572143e-003,
          -2.8440594209068980e-002, -2.2581209483359659e-002,
          3.0688010636516976e-002, -3.4861558313037111e-002,
          -2.7721900553962061e-002, 2.8208925871205229e-002,
          -5.2864826303524189e-002, 2.3845677860091657e-002,
          3.0165124105433132e-003, 3.2699221723680803e-002,
          3.5412374868049983e-002, 3.1495876840785003e-002,
          -1.7751641915329953e-002, 2.6276508734345262e-002,
          1.9087453157317948e-002, -1.2437724284153635e-002,
          3.6379197174478843e-002, -3.9831784138343811e-002,
          -7.8614533583409325e-003, -1.0303018809146454e-002,
          6.8698736068385164e-003, -1.9584940845399794e-002,
          3.1218269736481966e-002, 1.5210453175545360e-002,
          -5.2908044055481719e-003, 3.6755075057000437e-002,
          2.8703194501811764e-002, 3.6548838312350763e-002,
          3.6353454601985268e-002, 1.5125692282020880e-002,
          2.5395395529322785e-002, 3.2901152910337676e-002,
          -1.8527411858745167e-003, 2.6107466590006251e-003,
          1.1578911753678244e-002, 2.5528308872869609e-002,
          -2.2907335095974136e-002, -2.6427817778877961e-002,
          2.4667710695355616e-002, 3.8694445125932252e-002,
          3.3173667450526391e-002, 4.7538557364471094e-003,
          -4.6150208102877996e-003, -3.4368178704422492e-002,
          3.7838178779442205e-002, -3.1248164674554338e-002,
          3.4504006799784478e-002, -5.8457962787200397e-002,
          -4.5711521116933648e-003, 3.0788372609824911e-002,
          -5.9689982388801285e-002, -6.1837506718066211e-002,
          -2.7772798109273203e-002, 3.3455166814798987e-002,
          1.3298803226741213e-001, 4.6505059170317921e-002,
          -2.0222381782271939e-002, -4.7278344078710212e-002,
          5.9583748535919065e-002, 3.1946855167496305e-002,
          6.9637420852992168e-002, -6.6671558572055242e-002,
          -1.0840140332351828e-001, -1.3836013438575677e-002,
          6.5807622869359012e-002, 6.3319406185000524e-002,
          1.5624809095543623e-002, 1.0638117891244709e-002,
          -1.8976005930324700e-002, 1.2972883247901246e-001,
          -7.2889470010604737e-002, -3.4746692637047522e-002,
          5.0750761338164148e-002, -1.0381213750731592e-002,
          -1.0071548985088100e-001, 5.5801653460654681e-002,
          9.8985318797707549e-004, -5.8694606188227048e-002,
          -4.1647315926175550e-002, 8.4452483503214423e-002,
          -4.8799883775178673e-002, -8.8699163248076821e-002,
          -1.2632746501792969e-001, -7.1566893380425323e-002,
          2.6944212486311705e-002, -4.7864838156521795e-002,
          6.7867865214640985e-002, 7.8424164895968179e-002,
          -7.1936801922714219e-002, -2.3963765278785236e-002,
          7.9007432055404753e-003, -3.3372536076019511e-002,
          6.8941128996802145e-002, -2.2165788708160966e-002,
          3.2764404113567902e-002, 8.2008108813782704e-002,
          7.6473608742198967e-002, -3.9925435676418590e-002,
          4.9596874677394778e-002, 1.6705238820996990e-002,
          -4.4632731091763203e-002, -2.2411845207929541e-003,
          -1.1949143691767472e-001, 1.2056960880266417e-002,
          -8.6736603664890749e-002, 5.0395999346265596e-002,
          -1.7626136716635987e-001, 2.8910495350447832e-002,
          -3.9037973306052597e-002, 5.4287545699069496e-002,
          9.5429777013784106e-002, -1.3791032496187350e-001,
          -1.8303698871778482e-001, -2.9228450777536663e-002,
          1.3633743874611759e-001, 1.2791031324938384e-001,
          -2.4351886125106983e-002, -1.8395731717273975e-002,
          -8.2838404430775805e-003, 1.6166244795719550e-001,
          -6.7221346566591386e-002, -2.4157499435453560e-003,
          9.6113316120933989e-002, -5.0276711236233222e-002,
          5.0631907432519691e-002, 9.9039248936886454e-002,
          2.0954309335698973e-002, 1.0937663842117047e-001,
          -2.4111774270673198e-002, -2.5065157878429009e-004,
          -7.1803347525452144e-002, -1.9555290061690322e-002,
          6.2795164013854335e-002, 1.1829236427762992e-001,
          -1.0489931545545346e-001, -5.5741841329061362e-002,
          1.1762778341085986e-001, 1.7180028015928073e-001,
          8.5209842889105394e-002, -1.0802608557988855e-001,
          -4.7352106832586893e-002, -1.7421620620027077e-002,
          -1.9143690097102026e-002, -3.4240472201530113e-002,
          -3.3819647177944917e-002, -7.5374465919297001e-002,
          -4.9843554284631698e-002, -1.6639844413350752e-001,
          -1.4839804689820406e-002, 5.5048715230703572e-002,
          1.8557941538544377e-002, 9.5466155155646729e-002,
          -6.2449695664596142e-002, 5.1199498591559922e-002,
          9.3715084969042198e-002, 4.3749336652314667e-002,
          -3.6866365979848617e-002, 3.8235949730769311e-002,
          -6.2389439558732780e-002, 1.7150218169041720e-001,
          -3.9183906900997151e-003, 3.7091088699378084e-002,
          -8.1621715861901492e-002, -2.3235137074490118e-002,
          2.0592146716528467e-002, 1.1188549293130183e-003,
          -1.5620643685528993e-001, -6.3205691552275831e-002,
          -9.9583452986138299e-002, -1.0623858911259411e-001,
          -7.0071453331132530e-002, -1.3516978305570164e-002,
          -3.9421860013518759e-002, 5.4403892483358578e-002,
          8.3344389999355381e-002, 4.2756073168928981e-002,
          1.4647575023666148e-002, 4.9407511695083381e-002,
          -2.3790041080259765e-002, -1.4342553616918360e-001,
          3.5058149290005260e-002, -1.3084900070911704e-002,
          -1.2128033180250636e-001, -4.0563102070230055e-002,
          6.0425704657262228e-002, 6.6301241105820204e-003,
          1.0717438813108691e-002, -9.5281218491606770e-002,
          1.1947622367289046e-002, -3.1026574226388052e-002,
          3.4504442789083357e-002, -1.2639084007579718e-002,
          -3.4793540857746608e-002, -1.5636015150983562e-002,
          2.5980261781756206e-002, -7.3666932318938328e-003,
          -2.7546582050509100e-002, -1.8967201097838397e-002,
          -7.7717003711567385e-003, 3.6183182138625800e-002,
          -3.4418250906811304e-002, 1.3228741111444812e-002,
          -2.3514269478575805e-002, -3.7406526567012779e-002,
          -2.1247279004341330e-002, -1.5742582946994203e-002,
          1.3030272842098201e-002, 7.1013287180562695e-003,
          -1.1451059568662450e-002, 4.2262550851908588e-002,
          7.6365173390799349e-003, -4.0482891570316606e-002,
          1.9804040301159388e-002, 4.0858696318962157e-003,
          -3.2087264140037416e-002, 1.4859040325627662e-002,
          -2.9011953763971487e-002, 2.5247159304408458e-002,
          1.6868033070396436e-002, -3.9314908496167769e-002,
          -6.8463305162610785e-003, -8.8239760705979241e-003,
          1.0747341971071923e-002, -2.8128060895748576e-002,
          -1.6678898601031531e-002, -1.6403081141512920e-003,
          -4.6490354195358749e-003, -2.6650212874634926e-002,
          3.7184305136739558e-002, -2.3573844291194069e-002,
          1.7950185607315424e-002, -2.4079583954719899e-002,
          -3.2166375307730172e-002, -2.9208979898803993e-002,
          -3.6094645972547496e-002, 3.9979795832377893e-003,
          9.9573256319323816e-002, -2.1635137955833501e-002,
          4.5703675954918935e-002, -1.0814488063708746e-001,
          1.7549460096240563e-001, -7.2465783263097133e-002,
          -5.0242999611467283e-002, -1.3458692598117569e-001,
          -7.3616480055101352e-002, 6.8571678826784707e-002,
          -1.6155325128659587e-001, 5.2132280746532735e-002,
          9.4136584990496125e-003, -1.3751709501515620e-002,
          2.4173650938132164e-002, 5.7416280637405663e-002,
          7.6147432109046356e-002, -1.1514563320448919e-001,
          -6.6092709463098212e-002, -4.1585061179676877e-002,
          -1.0905875913578260e-001, 2.4351979358869447e-002,
          7.1976933213862213e-002, 2.5094903798088496e-002,
          -7.1112168507657239e-002, 3.0610901128829728e-002,
          -5.6312828352890780e-003, -1.9155372730085379e-001,
          -4.5130020122880858e-002, 6.8746517374368724e-002,
          -1.4060711237521942e-001, 5.2503252402685427e-002,
          -3.8131707771862415e-002, 1.2802662364559078e-001,
          -1.5828771044879625e-001, -2.5022480161959870e-001,
          -1.8456646475890806e-004, -8.9619327702154070e-002,
          8.6555189024604531e-002, -3.9678438106790857e-002,
          -1.2060258073399210e-001, 6.3117999881583231e-002,
          4.3011810873238687e-002, 3.1594149099241665e-002,
          6.3385436253735716e-002, 1.0905036901944035e-001,
          1.1399343626216298e-001, 8.2780481038272138e-002,
          8.1434580031441856e-003, -6.7694098333633143e-002,
          1.2518153979967686e-002, 1.1718462558320313e-001,
          -1.0137490879862007e-001, 4.2733407555709695e-002,
          6.0847370118251420e-002, 1.2158716471109698e-001,
          5.8643430312104970e-002, -2.5655904995337153e-002,
          3.7843466775277571e-002, -3.7635593047537549e-003,
          -1.1027890272923687e-002, -7.1873484606342630e-002,
          3.5331701360952081e-002, -8.2665703825430509e-002,
          -4.4122255305410876e-002, 3.6976428724404063e-002,
          7.9981749918197655e-003, -7.0417841012265087e-002,
          1.2929550623074856e-001, -4.6943238182477552e-002,
          -4.9213229688700059e-002, -6.0962434053122808e-002,
          -1.2125163940061551e-002, 3.8119527573806634e-002,
          6.0302660167356375e-003, 6.1168815271281748e-002,
          8.1555705001634296e-002, 7.4740730690446427e-002,
          1.0373042953218793e-001, -1.9569151344584555e-002,
          4.4732830824161081e-002, -1.3559344986989016e-001,
          4.6400770271692718e-002, 6.3858373355538858e-002,
          -2.8190165715664291e-002, 3.4463747250173989e-002,
          -3.3081696562859593e-002, 8.6760629741863923e-002,
          8.5615397764770285e-003, -8.1625289162461312e-002,
          -1.1352989206196632e-002, 5.3002545869483015e-003,
          -1.0754244607879976e-001, -1.6116326819090632e-001,
          -1.1352271418333133e-001, -3.2924692815911358e-002,
          6.8000344664099016e-002, 4.7582220001484675e-002,
          -2.1717279682395892e-002, -1.6886865841403777e-002,
          8.0854750891004731e-002, -4.9176145483551667e-003,
          -5.3842356396445218e-002, -1.0135118775345027e-001,
          -3.8886169264052362e-002, -1.0033184694084667e-002,
          1.6831338177904682e-002, -1.2622063659758525e-002,
          7.3647475156980530e-002, 1.2349846272421625e-002,
          9.6523601318578997e-002, -1.1187169222572693e-003,
          8.3590241205007507e-002, -1.0974597937434739e-001,
          -4.1666911542755806e-002, -9.8553170262198654e-003,
          2.5894267740824560e-002, 5.2064092060568300e-002,
          -3.4801405745848238e-002, 1.1914417015987088e-002,
          -8.6347202487327288e-002, 4.2933610650724104e-002,
          -2.3563917551085466e-002, -7.5730572397225290e-002,
          -2.1134317172824761e-002, -2.9561383491985074e-002,
          -1.1691855206951675e-001, 1.1364364302632592e-001,
          -7.9221839592101134e-003, -9.6693727053910640e-003,
          3.6262169900457968e-004, -9.1012156802719693e-002,
          2.0190403365542790e-002, -6.3112095788129777e-002,
          3.3077866462964713e-002, -6.2918668448619527e-002,
          -3.0101358066002705e-002, 5.0634091135355217e-003,
          1.0108864941357473e-001, 4.1351671099639026e-002,
          1.9409421005136675e-003, 3.4742237431944281e-002,
          -2.5546860588312795e-002, 1.2117228325491040e-001,
          -1.2206974735984838e-002, 1.4704022424230306e-001,
          1.1134242889314900e-002, 2.5551580356977482e-001,
          -8.4078133148634673e-002, -3.8908650013502494e-002,
          1.4871820816459372e-001, 2.4591150321373970e-001,
          -2.9691337346544670e-002, -3.1458926880418198e-001,
          -2.5929328001529505e-003, -2.9225872784260230e-002,
          2.1765987106793053e-001, -1.6409020607333288e-001,
          1.4635996129123271e-003, -2.4127787488850094e-001,
          1.5701525968488897e-001, 6.6229704042648080e-002,
          2.0585320650053418e-001, -8.5861416905780655e-002,
          4.2716862975782938e-001, 2.9381300447533276e-001,
          -9.6239043147039988e-002, -1.4160734228256725e-002,
          -5.7258335295311123e-002, 2.3003895383148837e-001,
          6.9787084425698614e-002, 4.0896097756683882e-002,
          1.1568635947961788e-001, 1.4570207994063882e-002,
          2.1528663188049693e-001, -7.7056451942690604e-002,
          2.4461077552511018e-001, -9.2702469721186301e-002,
          4.4330594077920560e-002, 9.8119940647172804e-002,
          -8.5181890204435270e-002, 4.2769606928313310e-002,
          1.4095556097322778e-001, 6.6684179611609343e-002,
          4.6158999958720217e-003, 7.8195503010136128e-002,
          2.1839393862706512e-002, -6.7601533474998254e-002,
          -1.9933549313978180e-001, -8.0256049377185737e-002,
          -2.5670773829590959e-001, -1.0260042105095071e-001,
          -3.6174798599272730e-002, 1.7203207880391699e-002,
          -2.4683074994830884e-003, -6.7042819272414456e-002,
          -7.2890375578254303e-004, -5.9169709302951318e-002,
          2.1060514096345503e-002, 1.6256100964034851e-002,
          1.2224489570612594e-001, -3.3679831627090101e-001,
          -6.8328855308373584e-002, -9.2334474810306974e-002,
          2.0744328280663943e-001, 1.1248137160212478e-001,
          -1.9515443352914344e-001, 1.0664161180758089e-001,
          8.9122567023759966e-002, 3.0948975258621291e-002,
          -3.8772682173377902e-003, 6.3318102055892181e-002,
          2.1533198740591589e-001, 1.9336545235141286e-001,
          5.6824017860405862e-002, -1.0525096242866665e-002,
          2.1362439313362847e-001, -1.0616220033427261e-001,
          -1.2566480666957156e-002, -3.4687780997440555e-002,
          7.4743466918695559e-002, -3.6923593502799723e-002,
          9.6982885779355016e-002, -3.7513767306929673e-002,
          -2.0537598022847475e-002, -1.1184730840269094e-002,
          -1.6339881177868812e-001, 6.6471128351504941e-002,
          4.4332512062493695e-002, -4.9180376259325392e-002,
          9.1099502869826501e-002, 8.2050970893701169e-002,
          -1.2379658236754566e-001, 8.2483612906831427e-002,
          -1.4063176978647557e-001, -1.1181514314100285e-001,
          1.4179424151882378e-001, 1.6102818510690292e-001,
          1.8095352945009698e-003, 5.7429586162225987e-002,
          -7.8912203216605720e-002, 8.6829357970356180e-002,
          -4.2371794723313171e-002, 7.7851503278198703e-002,
          5.2401316035034784e-002, -2.1704622280176368e-002,
          8.2151558234426741e-002, 1.2392720875443806e-001,
          5.2612154594807406e-002, -8.2231766067239156e-002,
          -3.7529548794379274e-002, -9.1910899976363578e-002,
          5.1135319048547664e-002, 7.5388624625095005e-002,
          -2.1458404973257872e-001, 6.5395934993736804e-002,
          8.5871741056854634e-002, 1.3924382400655749e-001,
          2.1409020244835988e-001, 2.9430078616929169e-002,
          -3.4242804040396591e-002, 1.9040366132819725e-001,
          8.3942898657966822e-002, -8.7496060660930172e-002,
          5.6085585972846110e-002, 9.8599169962372335e-002,
          1.6901852653488831e-002, 9.9167202088629308e-002,
          5.2086179536703449e-002, -1.7255830394717575e-001,
          3.7743395571385598e-002, -1.0229522226898942e-002,
          1.7809302401247773e-001, 2.9132055455572360e-003,
          -9.1770696381335941e-003, 1.0931904708650149e-001,
          -2.5381987452354565e-001, 8.1663742046493126e-002,
          -7.7842567673941888e-003, 1.0191139595818609e-001,
          1.2955797862217872e-001, 1.1601914506485907e-001,
          -2.2626568013438203e-001, -1.9216440812976476e-002,
          -4.3821161799184591e-002, -6.3290161975480291e-002,
          1.4259871743316332e-002, -2.0746269283822180e-001,
          -1.3888305875879761e-001, 2.1874879230582733e-001,
          -2.0665541406252874e-002, 1.4388584921548619e-001,
          -5.4963961746447652e-002, -4.8198902667559058e-002,
          -3.5025170910865294e-002, 2.0418496997690602e-001,
          -3.0067656878149451e-002, -2.9671862417009937e-001,
          3.6027327430228739e-002, -1.0470197426181842e-001,
          2.6275753435703753e-001, 6.7330410766791755e-004,
          -5.9518415272999683e-002, -1.8242755884244913e-001,
          1.0512333470032675e-001, 1.3615435398547968e-001,
          1.2486072139875129e-001, -5.5750288213121856e-002,
          3.2307919648998878e-001, 2.2248851654158477e-001,
          -1.3261143181698248e-001, -2.0267472225526165e-002,
          3.2955580128768779e-002, 6.3365416807951450e-002,
          1.7003970649861741e-002, -3.3855462436298597e-002,
          2.9166706820310406e-001, -9.2831344187331466e-002,
          1.4879886401446893e-001, -4.2112407448386263e-002,
          1.3568999670381740e-001, -9.4473194453293524e-002,
          2.3391522615105097e-002, 9.5440331009101639e-002,
          -5.0802481761424267e-002, 3.1406876300944415e-002,
          -5.4760867920496045e-002, 5.8147901551042810e-002,
          -2.8359673619458410e-002, 6.9827808571110636e-002,
          -8.2783876446291087e-003, -1.6558843691699732e-001,
          -6.7061052440516702e-002, -7.3736153277000602e-002,
          -2.7428392345815256e-001, 8.3054991952890497e-002,
          2.3373734615170430e-001, 2.4759936929995726e-002,
          -2.5599326055828323e-002, 6.7273301268388694e-002,
          1.0609426054401931e-001, -5.6563586224107343e-002,
          -7.5542057695828335e-002, -2.7674873474332379e-001,
          -1.4640255449649017e-002, 2.8379258939119027e-002,
          -5.9217813745504062e-002, -2.3495820236222398e-001,
          1.2721983708585835e-001, 1.1738754596086512e-001,
          -1.8088145378773265e-001, -6.3772692753389593e-002,
          5.3132196844983985e-002, -2.0254831339525259e-001,
          1.8761082483128003e-001, 1.2249508462975825e-002,
          -4.3017921956302026e-003, -6.0212915283584544e-002,
          -8.8178804209598810e-002, 8.9622029942527139e-003,
          -8.4500860227857855e-002, -2.0126918872609731e-001,
          -1.6006958221194836e-001, 3.1507385652552150e-002,
          -1.2499515694898193e-001, -2.7444083497364619e-001,
          -2.1323092643113929e-002, -5.5383757243940866e-002,
          -1.2555140443687965e-001, -4.2948598168780286e-003,
          -7.7307303938003641e-002, 5.4288057058359228e-002,
          9.8655400412578170e-002, -6.1519988826371177e-002,
          -3.1751893535192677e-001, -1.5882633365434484e-001,
          1.3893180351600593e-001, -4.4216173605596036e-002,
          1.5419911662810403e-003, -5.1289226795618384e-002,
          1.9770604482732357e-001, 4.2293946674872081e-002,
          1.8768634189674599e-001, 6.0993177898905016e-002,
          -2.7009475183583997e-002, -6.0062027961945354e-002,
          -3.5485721159727361e-002, 1.2899896554815962e-001,
          -4.0426501957141363e-002, 1.5998185681309167e-002,
          1.0788485589622678e-001, -3.0166398740260225e-002,
          1.5093111982354793e-001, 1.5607454871130941e-001,
          1.1410085957886942e-002, 9.5866079920942107e-002,
          -1.3424949770640918e-001, 1.7676300470247094e-001,
          2.5166522984862183e-001, 2.4022943709629416e-002,
          -1.9137774080183606e-001, 1.2050946126266320e-001,
          6.8047592553014846e-002, 2.2846360777586370e-002,
          -1.9024608474669769e-001, -1.8500282559908154e-001,
          -6.5958481729208332e-002, -1.1091280643380454e-001,
          -2.7785659692983543e-002, 4.2641050799521948e-002,
          -8.3439548825275225e-002, 9.2797337983309636e-002,
          -1.7201671508902922e-001, -2.1743283586843649e-002,
          1.6203435319631702e-002, 1.4373468664343134e-001,
          -2.9099815635218957e-003, -3.2241745983046022e-002,
          2.2275201992293817e-001, 1.7587838014304841e-001,
          8.6887945166005884e-002, 1.2213253046945021e-002,
          8.1573476203041173e-002, -4.0191909179428970e-002,
          1.1953611196100469e-002, 9.1622702716092075e-003,
          2.2524539639746277e-003, -6.1388948972685937e-002,
          -5.0614805311426356e-002, -4.6072688964271566e-002,
          2.9839112859969597e-003, 5.2017658878031198e-003,
          1.9443437775363906e-002, -2.4697021008932440e-001,
          1.0268930084569726e-001, 4.1447428895892612e-002,
          -2.0468873402892149e-002, 9.8207503573705446e-002,
          3.5816730407332353e-002, 1.7472231165877647e-001,
          1.6975367225381805e-002, -1.0868656251061398e-001,
          -7.3360110276958559e-002, 9.1185553072795036e-002,
          7.1327756841085910e-003, -1.0315858927975757e-001,
          -4.4548217938668963e-002, 1.4205802009095636e-001,
          -1.4895097691432546e-001, -2.3840461036830227e-001,
          -1.9168721654735688e-001, 1.5941319018005069e-002,
          1.9350795871947715e-001, 7.3061123815486004e-002,
          -1.0044284754501055e-001, 4.2051853415072928e-002,
          8.0874098480576036e-003, 6.0783191843596422e-002,
          1.0624407435193350e-001, -3.8512757142712364e-002,
          -8.3939377695266118e-002, -1.9451529939392344e-002,
          -1.5470262313605238e-001, 5.8793631150748121e-002,
          8.9340706984119569e-002, 6.9151522755250966e-002,
          -1.0306846573932887e-001, 2.9555385932179989e-002,
          1.8730113746941404e-001, -4.3855348686607912e-002,
          2.1824688744382807e-002, -1.4451893868917681e-002,
          -1.8555148484757208e-001, -1.0766203131904546e-001,
          1.0731498934054362e-002, 2.0752294471280412e-002,
          -1.8227543349027708e-001, -2.5641873498589998e-002,
          -4.9908822382730186e-002, -9.8069115140717783e-002,
          4.3674646396668099e-001, -6.7220055672301673e-002,
          2.3374798703889579e-001, 7.8873857162901545e-002,
          1.4954274270718476e-001, -8.1371201388564240e-002,
          -8.9119112781469931e-003, 1.6699108735703464e-002,
          2.8783244584296680e-002, 2.6480810884221263e-002,
          5.0155056200724427e-002, -8.2571791500660491e-002,
          6.7760146260007204e-002, -3.2187961929278947e-001,
          -1.8729638769371129e-001, 4.0326203567538264e-002,
          2.1544707329501236e-001, -2.4711867820469975e-002,
          -1.0487421766128455e-001, -3.7246607167387413e-001,
          1.1981433091093610e-001, 2.0985614974293562e-001,
          2.3160914425046758e-001, 2.2897865059029032e-001,
          -2.2929397195470429e-002, 2.6788469233508677e-001,
          -5.6275464016212841e-002, -1.0775948640725638e-001,
          2.3665839475053997e-002, 4.1420874036899667e-002,
          -1.2413946679735713e-001, -6.1756666754769880e-002,
          2.1529550537826664e-001, 8.3835732885917474e-002,
          -1.2290861579819552e-001, -6.3800789874096778e-002,
          -2.0340515280806121e-003, -1.5270168570800227e-001,
          3.8760558144065732e-002, 4.1266363469759766e-002,
          -1.1516985594082096e-001, 1.4992198353528358e-001,
          -8.7645341770416871e-002, 1.0812091785141575e-001,
          -1.1835457741482067e-001, 2.2013695655468637e-001,
          3.3379792510538832e-002, -1.8276544819853250e-002,
          2.9456578037423498e-001, 2.7452077602084901e-001,
          -4.2853102645349812e-002, -2.2341242964717087e-001,
          -2.5003803623193260e-001, -6.1391119415471505e-002,
          -5.9434173050613798e-002, -3.9312945801993203e-002,
          -1.2924974205814052e-001, 7.9490388943576185e-002,
          5.9836499494000300e-002, -1.0380972960140143e-001,
          1.3984584100627398e-001, 4.1030035817588038e-002,
          -1.5055841411804038e-001, 1.1721315675310591e-001,
          9.0715138615676774e-002, 1.1232125921052512e-001,
          -1.1091826832874994e-001, -1.2688021441206013e-001,
          2.3702517996436148e-002, -6.0516459864917292e-002,
          -3.0265893599046505e-002, -2.0329076152470894e-003,
          -3.6880136759392189e-002, -4.9155836444552395e-003,
          5.6787096487664029e-002, 9.8922604116890536e-002,
          -2.0403563555687040e-001, -1.6136684447332322e-001,
          -5.2298663809074671e-002, 1.2823463181825956e-001,
          -1.1447206626967470e-001, 3.7822098541675342e-001,
          2.5169916008870041e-001, 4.8071021665182102e-002,
          -2.1630541734833705e-001, -2.1722371582294751e-002,
          7.5368100923864353e-002, -3.0123301818224152e-001,
          1.1341111667451394e-001, 8.2223467370108716e-002,
          -1.6724220783631955e-001, -9.9834354889075411e-002,
          -1.5271047045402525e-001, 2.9229986095061633e-001,
          3.4880673613821599e-002, 7.5533238233801217e-002,
          -1.3348770110134099e-002, -2.5588326116461385e-001,
          -4.4220380580314037e-002, -6.5604221245858824e-002,
          2.5406643758515500e-002, 6.3908580242569915e-002,
          5.0255286433319177e-003, -4.9024259227934144e-002,
          -4.3668074385961750e-002, 1.0953564116703716e-001,
          -7.8607933322410534e-002, 4.5490116776827363e-002,
          -4.0972326334828800e-002, 2.1485983484306477e-002,
          1.8101488347616135e-001, -1.0179547944992706e-001,
          -2.1265372905240787e-001, -8.9270454411254460e-002,
          -8.4024333970106474e-002, 2.4241464169836172e-001,
          5.9915226545832159e-002, -1.1946642099298642e-001,
          -2.8539241855694331e-001, 1.0605236898375871e-001,
          -2.1119882778488913e-001, -2.4434771810614062e-001,
          1.5267140135185087e-001, -7.1105173010695730e-002,
          -1.3280983487477449e-001, -9.0332811736143978e-002,
          -6.4691817574153321e-004, 4.6129535819018465e-003,
          -4.7207267136136016e-002, -6.3830709396906410e-002,
          8.9886556185589647e-002, -3.3841394833055655e-001,
          1.0068555364688984e-001, 1.2983034868589655e-001,
          1.4835628402744291e-001, -1.4458920872490563e-001,
          1.2345741891621582e-001, -2.2270473867127483e-001,
          2.8560222827181420e-002, 6.9764672176015952e-002,
          7.5285127016326864e-002, -1.7476929547528583e-001,
          2.2759098545588326e-002, 2.2646678686480473e-001,
          1.8738896651845111e-002, -1.3884460107801241e-001,
          -3.8670229398347702e-002, -1.5905824999790127e-001,
          2.0026706961379498e-001, 2.8520950563037015e-003,
          8.0408375333040585e-002, 3.1050521040929763e-001,
          7.2662273095513170e-003, -6.1564748545986057e-002,
          2.9837913457084482e-002, -1.9234500272964830e-001,
          1.0410932431164717e-001, 2.3849222929493895e-002,
          -7.1040845246014520e-002, -9.8688692893496521e-002,
          2.3928092943888399e-001, 8.6380029924023383e-002,
          1.5895922522533859e-001, -8.7328547767323558e-002,
          4.4741851707889274e-002, 1.0100367860158896e-001,
          -1.6921751015112240e-002, -2.4723319750151618e-001,
          1.9931843891719528e-001, 5.7157274568396595e-002,
          5.2215387367320572e-002, 2.4654282196755828e-003,
          1.4127653398040621e-001, 4.6296053937781023e-002,
          -2.0728563501570960e-002, -4.3858963413328539e-002,
          2.0282979603806400e-001, -1.5588389391480054e-001,
          -1.6067666127613828e-001, -1.2429967925040553e-001,
          -6.3974315981922131e-002, 9.3007868298835505e-002,
          -2.4543066367816598e-003, 2.7369072673420042e-001,
          -2.8047272493761006e-002, -1.7146567225044390e-001,
          1.6146148109725963e-001, -1.5822119531126663e-002,
          -1.8572261181273614e-001, -2.9472122984295440e-001,
          -8.8094517735838821e-003, 3.7105351011306908e-002,
          2.3598516901740285e-001, -4.1246826010507595e-002,
          -8.5152872766847982e-003, 9.7082394344845474e-002,
          1.0282300169694289e-002, -1.0780420955964506e-001,
          1.3289352578542485e-001, -1.6058144431431967e-001,
          -3.4804531263697369e-002, -2.4525892822039871e-002,
          -1.1452815144509119e-001, 1.5157104902508567e-001,
          -2.8184721203514679e-001, 8.1992323698865485e-002,
          -6.3036694994129228e-002, 9.2339981296652093e-002,
          -1.5839962230426796e-001, 6.5569444512820468e-003,
          1.3606205145925750e-002, -3.1032643626103817e-001,
          -1.4906026229681466e-001, -4.9106813908361510e-002,
          9.0766093838854880e-002, 8.1807004582578988e-002,
          -5.7511120896918164e-002, 2.6855813632873449e-001,
          4.8812917073663552e-002, -2.8934626142649184e-001,
          6.6199009054356064e-002, 4.2116487544714498e-001,
          6.8438579773782135e-002, -1.1860353561993614e-001,
          -8.7995688510466727e-002, 1.3953316434241103e-001,
          9.2964672690145578e-002, 1.9289198479024981e-003,
          -4.3459537044071312e-003, -5.3554122043472777e-002,
          -9.7038265765050785e-002, -2.6012399990741432e-002,
          1.0712400750237079e-001, 1.9477263205167694e-001,
          4.3528626173481785e-002, 1.3977213369404545e-001,
          -7.3892849806668853e-002, -3.8578715281615841e-002,
          -9.6944857023906830e-002, -1.3916513572962256e-002,
          1.8478372660254547e-001, 2.1719311454343734e-001,
          1.0437328825133974e-001, 2.6186554500422812e-002,
          -2.5173177076876124e-001, 2.2604808569937546e-002,
          -7.4136701786140513e-002, -1.3733046034798430e-001,
          -4.3107515995340774e-002, 3.3381914493392596e-002,
          1.6526846809970935e-002, -5.8750507161829731e-002,
          -2.5552060517435492e-002, 1.8318368572203070e-001,
          -2.1712168177441973e-001, 4.2783550103545266e-002,
          9.8193959837494280e-002, 5.5361248281359680e-002,
          -5.8899803935830206e-002, -7.7789186307220162e-002,
          -7.1550185598947019e-002, 7.8971093362659409e-002,
          5.7778804798847005e-002, 2.6497900924966455e-001,
          -1.8552999618443913e-001, -3.5182041850783156e-002,
          5.4766157137819488e-002, 2.0780916905289992e-002,
          2.4224015046434780e-001, -1.8189932849977780e-001,
          1.0937695932385250e-001, 7.6229964496716124e-002,
          -1.3041109004708426e-001, 3.3819912300559241e-001,
          1.9890707975409364e-001, 1.0835586358203485e-001,
          -1.6501111874349611e-001, -2.6207979508136518e-002,
          6.4449074036993913e-003, 1.3057788766225634e-001,
          4.5535580381690477e-002, 5.4134399154184137e-002,
          -1.0510109023319486e-001, 1.2330606337407808e-001,
          3.6805926562411073e-001, 2.5036739601346525e-001,
          2.2851611793848221e-002, -4.8517045644724144e-002,
          -5.8535652607076744e-002, -6.9346141669070813e-002,
          -2.4100151037760809e-002, 7.8411451931392651e-002,
          1.7204151681930039e-003, 4.8106172352329314e-002,
          -5.5592704099806788e-002, -4.7155092763870594e-002,
          -6.1257074968592395e-002, -1.5436253041738976e-001,
          4.8791887312208085e-002, 2.4194294110984643e-001,
          5.6426262571786082e-002, -2.9188095812404290e-002,
          3.3211834653635214e-001, 9.3158117354182335e-002,
          9.0699294038226755e-002, 3.6326580189885320e-002,
          -4.0379448969052177e-002, -3.2354834009772834e-003,
          2.6288817791172373e-002, -6.9972131039661059e-002,
          -1.2589935852155940e-001, 1.9583968849405713e-002,
          3.5049167872006619e-002, -1.8239575538709332e-001,
          2.0845627343530845e-002, -7.8272504334362905e-002,
          -9.1519321570221093e-002, -1.0706006742807054e-002,
          -3.9934353430025445e-002, 8.5300270397540998e-002,
          -1.2007141841828577e-001, 2.3711967266823387e-002,
          1.1847529003425533e-002, -2.2190044392111341e-001,
          7.1840679426838749e-002, 1.0252527272256913e-001,
          2.1433526327386504e-001, 1.2269829817843765e-001,
          2.9020021508955579e-001, -2.0186840150462196e-001,
          3.4329887139723991e-001, -1.1081491699646094e-001,
          6.9730255470509497e-002, -1.1247283382497196e-001,
          1.0496248436549841e-002, 8.4289035470392071e-002,
          1.2948311207706950e-001, -5.3245267258434127e-002,
          -3.9405965805487178e-002, -3.9494765511515789e-002,
          -7.1913688114719612e-002, -4.2669345611273987e-002,
          6.1810992807387714e-002, -2.8251328833557602e-003,
          -1.2092197634202724e-002, -6.5183982401818994e-003,
          1.9489429195708141e-001, -5.7733834508153607e-002,
          -1.3789020525814266e-001, -8.0497605534395722e-002,
          2.5318889130725365e-002, -1.5666368480991652e-001,
          -3.2080681939979448e-002, -1.4315055720060695e-003,
          -4.1449583650537303e-002, -1.1150958968943057e-001,
          3.8778700686435956e-002, 1.7500149891805711e-001,
          -7.8573033067207129e-002, -1.7227602743117860e-002,
          7.4710679812589761e-002, 7.8943169830820892e-002,
          -4.1035422680120552e-002, -4.9552301321504975e-002,
          1.1642372611766086e-001, 2.0770452674135642e-001,
          5.6911360826498586e-002, -2.9776683482870653e-001,
          -4.8324324090311052e-003, -7.9571895344989069e-002,
          -8.8091754316850009e-003, -3.7600676374453697e-002,
          1.9265071110790115e-002, -7.0415528031783414e-002,
          -1.8004437632659920e-001, -1.1647525303668400e-001,
          1.9982641609974930e-001, 3.9191358038935219e-002,
          1.4924308783380191e-001, 1.8754112367100390e-001,
          -3.4488541710385415e-002, -5.4938631308428215e-002,
          -7.3018592950121225e-002, 1.4199243003697357e-001,
          1.9472315471469825e-001, -4.8439715932140165e-002,
          -6.1142483559554664e-002, -1.6924067612650584e-001,
          7.7137966112620471e-002, 1.1717866742560250e-001,
          -1.7728513968792638e-002, 7.7603046926853686e-002,
          9.5639603746145496e-002, -1.3741806258430761e-001,
          -1.6336714243216460e-001, 8.9490685485192331e-002,
          -1.0686137157397151e-002, 1.7972305964911206e-001,
          -1.9208273464730574e-001, -1.0286868476737043e-002,
          1.1806922393242271e-001, -2.3694116387099690e-001,
          -2.3002757701786662e-002, 1.5748477928670798e-001,
          -4.8372324371585403e-002, -9.3072666964001641e-002,
          -1.2650914514942221e-001, 2.0127953848632646e-001,
          -4.9374136696503049e-002, -2.3990571169375588e-001,
          -7.5475798335406741e-002, 5.4665030969448536e-001,
          -1.7193122151524989e-001, -1.6042976753244351e-001,
          -2.5752904185049920e-002, 1.3995525943333101e-001,
          -8.6166810343077014e-004, 5.6365825724219720e-002,
          -2.4584180198223124e-001, 9.2859631739674181e-002,
          1.2207991098095730e-001, -6.3220728528851133e-002,
          -6.7390825270089175e-002, -8.5357586813065489e-002,
          1.1657802214158580e-001, -2.0049000909859419e-001,
          -4.0856525074216263e-002, 1.2065858107364703e-001,
          1.2588226348921269e-001, 5.8766982814737433e-002,
          3.2942886451010439e-001, 2.9242805004376297e-003,
          8.3827402550938554e-002, 1.2816913965109061e-001,
          1.2238200927625395e-001, -7.3758570217334909e-002,
          -5.5204190235898613e-002, -1.6290800056124544e-001,
          -1.2865617652614650e-003, -7.8373456892328996e-002,
          -3.0813657538611164e-002, 5.9722365196298581e-002,
          3.0467455576297145e-003, 7.6729198219792821e-002,
          5.0444974129067822e-002, -3.4691846913679922e-002,
          1.1760988345458659e-001, 6.2154769223171355e-002,
          1.5254793849225326e-001, -7.4030847110625854e-003,
          -9.9440253227669043e-002, -1.1219766775883969e-001,
          -2.2024205777131659e-002, 4.6651539567394186e-003,
          1.3438868929796449e-001, -9.3794013889886858e-003,
          4.2346037600367641e-002, 1.4505493703850542e-001,
          -1.3191940806729219e-001, -3.2278627554876399e-001,
          -8.8321708554824976e-003, 2.2425320338632090e-001,
          -1.7138614469062594e-001, 9.3353855633173527e-002,
          -1.1472850859994214e-001, 2.4334402256604717e-001,
          -1.1937023552738366e-001, 7.5569824493491852e-002,
          8.5861041801636881e-002, -1.8153701504927411e-001,
          2.1541869353453255e-001, -8.4004652693449949e-002,
          -6.9001752748322626e-002, 9.0107743666891560e-002,
          -1.7243440183597242e-001, 7.4564755154705592e-002,
          -1.5562265840385531e-001, -5.8307074714991081e-002,
          -9.4123463663385674e-003, -2.3595996475023245e-001,
          1.1041070944462805e-001, -1.7366179396070125e-001,
          1.8357568899443746e-001, 1.5682123711357163e-001,
          1.0047144916284174e-002, -1.0587656467947373e-001,
          2.0973730379149975e-002, 8.6922269227016749e-002,
          2.6903770976055147e-002, 4.9884099220516764e-001,
          -3.4443546812458115e-001, 9.4258485656690316e-002,
          -8.9583042752239980e-002, 7.3481682549264597e-003,
          1.7165061913645857e-001, -2.1086203032476564e-003,
          8.2596656716532289e-003, -2.1042387515136610e-001,
          6.3409962055730185e-002, 2.6555807754819569e-002,
          -1.3821412631715621e-002, -3.1912006799905218e-001,
          3.3072067560485370e-002, -1.0994278280701361e-001,
          -3.0647538535785007e-001, 1.4432951103969333e-001,
          2.7753138287952259e-002, -5.3318592821180934e-002,
          -1.1604277694069697e-001, 1.6538177365712489e-001,
          -1.0812259972887135e-001, 1.1611300636560871e-001,
          -1.7952041094373325e-001, -1.4042790201495414e-001,
          -1.1680804396536260e-001, -5.8441597633099765e-002,
          -5.7216320764363858e-002, -7.7170114241932583e-002,
          2.0615988417510606e-001, -5.7794147025404433e-002,
          -1.3741580331050079e-002, -1.2088188822655725e-001,
          2.2928823207238760e-001, -1.9904213294680027e-002,
          -8.9810850233578626e-002, 9.7326026335525437e-003,
          2.0405057671186877e-001, -2.9056106396760556e-001,
          -1.1377264578000440e-001, 5.6807916536499220e-002,
          -5.4872988051351643e-002, 6.1189908615679148e-002,
          1.8042791071584863e-001, 2.2403876347981678e-002,
          -2.4285803756008395e-001, -2.2699504980011234e-001,
          -6.1487495493130921e-002, 4.9562715460838083e-003,
          8.1170778021520854e-002, 1.1703846760095482e-001,
          -3.7840531676194217e-003, -4.8947768008923934e-002,
          7.1717003959898473e-003, 1.5427769751052428e-001,
          -1.0575345315103830e-002, 2.5695972819445006e-002,
          2.4898656736209272e-002, 8.7427869583167686e-002,
          -2.4555002278186133e-001, 1.5810797792887396e-001,
          2.1750892654623030e-001, 1.6955898497898393e-002,
          2.0025196545314822e-001, -6.7654770502698122e-002,
          -8.7622203991023669e-003, -2.1689658616376373e-001,
          -1.1725951463775941e-002, 3.9185571298695689e-002,
          1.3764561249977911e-002, -8.8282132863154977e-002,
          -2.9750296036991758e-001, -6.2505567980238361e-002,
          -5.3139934817714701e-002, 4.1030724357187597e-002,
          1.7899550170407025e-001, 7.0132494506807919e-002,
          1.3964838828050208e-001, -6.6483730173089400e-004,
          1.5859604329971605e-002, 1.5700822859870925e-001,
          -1.3799971292876847e-002, 8.1167936407205050e-003,
          1.8899254698718056e-002, 1.6632934500819471e-001,
          -3.2189446367705904e-002, 1.2868979312454512e-001,
          -1.6379660963887693e-001, -1.3305707604062864e-001,
          -3.2051595378689172e-002, 1.4290201810260977e-002,
          -5.6149339732438942e-003, 1.4823369474552120e-001,
          -7.1150426270648423e-002, 1.9263281484399225e-001,
          -1.8523740248996051e-001, 1.6211050686346160e-001,
          -1.9329195018785363e-002, -3.6973825115460858e-002,
          -1.2879685095697291e-001, 1.4006842241152170e-001,
          -2.2286994020367962e-001, 1.1854439827721346e-001,
          1.1141390130061049e-001, 8.7434744075404844e-002,
          -5.4984155076641561e-002, -9.9354665596168124e-002,
          -1.8188461847615182e-002, -6.3152104860687328e-002,
          1.9781234517481586e-001, -1.4669078711836371e-002,
          -7.1047242913699959e-002, 1.2301940141685418e-002,
          1.0935139966476645e-002, -8.7875945225008079e-002,
          6.9936781295740116e-002, -3.5188442809876416e-002,
          6.9066470742206065e-002, 2.3267443793672758e-002,
          2.3043983021508310e-001, -1.2446813204880175e-001,
          4.7210145288286307e-002, 9.1293478893654231e-002,
          -1.5777190416656059e-001, -2.0281985336474631e-001,
          4.8682126036823252e-002, -4.2539501879283008e-002,
          2.6249280977389260e-002, 8.8911832465751295e-002,
          5.6544318359767129e-002, 1.0831903126028657e-001,
          1.3026301386650566e-001, -6.1768126341659145e-002,
          4.0324667017016064e-002, -4.0519680471572408e-002,
          -4.7284846903912166e-002, -8.9090843166766187e-002,
          1.1506083617451650e-001, -8.3463492078511628e-002,
          3.2730273009830418e-002, -2.7313239824982880e-002,
          -3.3165005289832614e-002, -3.9823983479517606e-002,
          2.7275060335697533e-002, 7.7686016356130830e-002,
          -6.0394416436965991e-003, 7.7009117565188219e-003,
          2.5632430788135166e-002, -1.9077663350358407e-002,
          -2.1529027282796369e-002, 3.1050100073001817e-002,
          8.4814300484144289e-002, 8.1995137837947273e-003,
          -7.1102281528755501e-002, -4.4213973715318419e-002,
          2.0113661368011586e-003, 8.8544279876848431e-002,
          -1.2356553310020854e-002, -1.1135596516013120e-002,
          -1.9844181869931973e-001, 9.7083852518565675e-002,
          1.4415682963335627e-001, -1.1877744223555764e-001,
          -7.4510825961294477e-002, 2.6777528028605152e-001,
          -7.1811248072044809e-002, 7.2801048346016611e-002,
          8.1129992508569379e-002, -6.3168955212892369e-002,
          -9.1711010917743502e-002, -2.3773263549066981e-001,
          -1.7119402891303417e-001, -1.9492893660355740e-001,
          2.3005070312017321e-002, -1.6111203411671406e-002,
          4.2562742537666946e-002, 3.3926485175224024e-003,
          -1.6980154960180755e-002, 6.3611677753380280e-002,
          -1.3648034438362519e-001, -8.7648867905888564e-002,
          -1.7058490222998678e-002, -8.4674572440594537e-002,
          -9.0831803080756002e-002, 1.4796006386433544e-001,
          -6.0900958284502482e-002, 3.6923257771004719e-002,
          -4.5690682008165805e-002, 2.3212712914593092e-001,
          -1.2763334688601546e-001, -2.6724448510802368e-001,
          -6.0236076473591062e-002, 1.4469398853495002e-001,
          2.9895544082568676e-001, 1.5783238911671837e-001,
          -1.3080450757114728e-001, -5.2815904838788154e-002,
          1.1661945358715009e-001, 7.7705649496174770e-002,
          -2.7743649888463309e-002, -7.7806174601793579e-002,
          -9.4353064898947014e-002, 5.0605209862218718e-002,
          -4.0099514057329151e-002, -1.1041564757317053e-001,
          1.6678372597359814e-001, 6.1761822114952521e-002,
          -3.1783417670427395e-002, 5.3560224708073020e-002,
          -1.4847353250411734e-002, -4.9688098677889807e-003,
          1.2222341046593381e-001, 2.7119647140321390e-001,
          -6.0204247917405966e-002, -7.3276782844084717e-002,
          -1.1945812219949331e-001, 1.3272139957161294e-001,
          1.2711932904619788e-001, -6.3938046327799578e-002,
          4.6211298398127369e-002, 2.8649709567115038e-002,
          -3.6215238479947087e-001, -3.6725554767131574e-002,
          -2.9771809149471508e-002, 9.2928517953544242e-003,
          6.0093081469356033e-002, -1.2316328924269211e-002,
          2.2170507219370331e-001, 2.1307176426392138e-001,
          -8.6599870849089142e-003, -2.6617425599764981e-002,
          -2.1384096404679953e-001, 6.9398588796354840e-002,
          2.8864771176109041e-002, -1.1626379539030171e-001,
          -8.6908439015215902e-002, 2.9269303338112840e-002,
          1.2194703669009072e-001, 1.4547723245985819e-001,
          3.3939563245802669e-002, -1.2895021558849054e-001,
          -1.5904850001847132e-002, -2.1136625290167393e-001,
          3.8032794887034142e-002, -1.4915204291512035e-001,
          6.0258935175734642e-002, -1.5791926851429006e-001,
          -1.1518376623062959e-001, 2.6890033087552216e-002,
          1.3783108737160824e-001, 1.2519700013423707e-001,
          -4.9129094709974439e-002, 1.2466271128134045e-001,
          -1.6863281827984955e-001, -8.1370148481151552e-002,
          -9.2603211253618992e-002, -1.0077506360680488e-001,
          6.5970462454707612e-002, 1.2034296472410461e-001,
          1.0311936768642185e-002, -2.0799269364145048e-001,
          3.1011139701682060e-002, 1.8405398451206975e-001,
          -8.3977587479346361e-002, -1.2673533149947327e-001,
          -2.0438294083482769e-001, -5.0302432867036458e-002,
          -6.6035998157041170e-002, 3.8426092851180559e-002,
          7.0638379051759487e-002, 1.4642502014398318e-001,
          -2.2349758703214365e-001, -6.4519483910952857e-002,
          2.8514295149258103e-003, -9.0269283593000960e-002,
          -1.1433957111025274e-001, -9.5314134690564670e-002,
          -5.9708869805045126e-002, 2.3278614381826362e-002,
          -1.1850552412073977e-001, -5.7272252408731225e-002,
          -8.0268842770988003e-002, -6.9006249180688775e-002,
          1.1516126464286070e-003, -1.3075831027388470e-002,
          -1.0754276862992367e-001, -1.6056703459270352e-001,
          -1.0211740247420616e-001, 1.3005393226802744e-001,
          -1.8977997719687742e-003, -8.9912737140269455e-002,
          -6.8534875219814051e-002, 1.1427212971596929e-002,
          6.6789458280152189e-002, 8.7051762345889641e-002,
          6.3357679391637431e-002, 8.6879064436235859e-002,
          -7.1099621326519771e-002, -4.9613382866687067e-002,
          -4.7384683483530773e-003, 1.2943195043024869e-003,
          -6.2413360183545506e-002, 5.2752249387982446e-002,
          -3.5240365413935354e-002, 1.3357034523728362e-001,
          -1.4005130715972888e-001, -8.4524107376113572e-002,
          -5.6899289347111255e-002, -1.2908635772627313e-002,
          -1.9010078324533594e-001, 9.2400988863495695e-002,
          -1.0917381089538671e-001, -1.3664221817084080e-001,
          7.6257686000489627e-002, 6.8559856879680720e-002,
          -2.6171087893561068e-001, -1.6629994922588662e-001,
          -1.5556223506654148e-002, -1.0404153737795424e-001,
          1.1008160653644067e-002, 3.8542949529064834e-002,
          -2.3999549813994551e-002, 6.4870514304612270e-002,
          6.6606011247760930e-002, -1.8297472155840824e-001,
          7.4670228000891903e-002, 5.2526360660602643e-002,
          -4.0384756891390518e-002, -1.4681419395896128e-001,
          -2.7179474401169860e-002, -1.1310724230900353e-001,
          7.1878032603915856e-002, -3.8448279776279050e-002,
          -7.9170803289704592e-002, -2.7543615779555063e-002,
          -1.0106732696313386e-001, 1.2013644155271978e-001,
          -1.8188174386929729e-002, 1.3942074419500622e-001,
          -7.8343964121366613e-002, -4.4306482625658273e-003,
          7.0179470561762408e-002, 7.3492430943522674e-002,
          3.5461935157285483e-002, 4.7427576082666754e-002,
          -1.3042492524946372e-001, -4.6182123805333264e-002,
          -1.2829939678071840e-002, -8.5630700619814606e-002,
          1.7126936595606129e-001, 8.3909881309494089e-002,
          3.6579858731006873e-002, 1.4245854110131245e-001,
          -1.8755859576526526e-001, -1.1055857421411960e-001,
          -1.1193131828195393e-002, -3.8691071644732836e-003,
          -2.0249179650680660e-001, 5.5257911739808215e-002,
          6.0036058771708138e-002, 4.8225508590364216e-002,
          3.0578575604400700e-002, -2.4998025694394792e-002,
          4.6245577233234317e-002, 3.5857196292717462e-002,
          -7.3201036926728469e-002, 1.5591028751635811e-002,
          3.4650003061450718e-002, 1.4234642585646020e-002,
          1.0737515478226983e-001, 6.3192374740007551e-002,
          8.4918824411595789e-002, 1.4694580176528485e-001,
          8.4686426043311169e-002, 5.4494643311746888e-002,
          1.5479194455685535e-001, 4.8549552181428861e-002,
          -1.2330069352826612e-002, -1.5697506507481952e-002,
          3.1671092075731233e-001, -7.0881542817804857e-002,
          -3.0936622991149507e-002, -2.0041358896862060e-001,
          -5.0145962890911000e-002, 8.5145557191441761e-004,
          -6.2262129879681508e-002, 2.9943786529011144e-002,
          1.2035937816802372e-002, -7.6488280374276393e-002,
          -5.5405407632799782e-002, 8.3259336692862673e-002,
          6.8228133314035433e-002, -1.6141562907492318e-001,
          -6.8884751755191834e-002, -7.9794741885364770e-002,
          -2.7120519203211896e-001, 4.1668442590364792e-002,
          -1.6565492315727737e-002, 6.6256684504633845e-002,
          -6.7500929034393323e-002, 9.4279330327622680e-003,
          -1.4534502740153923e-001, -6.9980491355810290e-002,
          -1.3194835602023414e-001, -1.2627946286672401e-001,
          -1.6820344962819311e-001, 1.4667099209874521e-001,
          5.9456224046522330e-002, 3.1259660676021608e-003,
          -1.1555491315856371e-001, 1.5798268750682676e-002,
          5.9343626195115948e-002, 1.7236466820339694e-002,
          3.1966521533001474e-002, -4.7261598845781273e-002,
          -1.8334995081967012e-001, 1.3691218797765992e-001,
          8.0827670171609231e-003, 4.9148477823129651e-002,
          2.5997600396365294e-002, 1.9656855891314617e-001,
          1.9081288730631467e-002, 6.5020674057341576e-002,
          -1.2095276159807378e-001, 1.2847070249105616e-001,
          1.1517084417452787e-001, -1.1835563053663460e-001,
          -5.9872022319624262e-002, -1.2875458522105965e-002,
          -5.6382366887637779e-002, 3.8448055323915603e-003,
          -5.9706062285776601e-002, -4.1872590373123172e-002,
          -1.8882186075220263e-004, -2.0640742937725715e-001,
          3.3547372535686265e-001, -5.8964602452728769e-002,
          5.8612461744930781e-002, -4.8753501759399180e-002,
          1.1762150523536812e-002, -2.3608475240648466e-001,
          4.5133985325711536e-002, 7.0108871809034259e-002,
          2.1191229088024721e-001, -7.7252321589826783e-002,
          4.1543948297674521e-002, -6.2699192495054207e-002,
          -2.2031597563478608e-001, -3.1873931063453771e-002,
          3.7349005965200310e-001, 7.2201696171248983e-002,
          5.9992710116496435e-002, -2.0370831190132548e-002,
          -4.9643119339066101e-002, 1.9058194838129888e-001,
          -8.5472625930638119e-002, 1.4237377949046765e-002,
          -6.2935293487994759e-002, -1.4746511917807831e-001,
          -7.1566392636797496e-002, -5.2119456919940323e-003,
          1.3712586568637178e-001, 1.0745774235643044e-001,
          -5.9649849387039593e-002, -1.1378848014737379e-001,
          1.9472979011158273e-001, -2.9060420650005084e-002,
          -1.2052445440598610e-001, 1.0260501170057344e-001,
          -5.1532611139622903e-002, 5.6068093728220570e-003,
          -1.2076731506652841e-001, -1.0231543199451583e-001,
          1.5646619545419951e-001, 8.8219169104066048e-002,
          1.8792939077934018e-002, 8.8225516079685675e-003,
          2.3481579103090414e-002, -1.2545755597185909e-001,
          -1.7131139193971315e-001, 1.6042932316455014e-001,
          3.9120104182373550e-002, 2.4073818716762413e-001,
          -6.7668800162636877e-002, 2.1735014192159948e-002,
          9.8006612860191411e-002, 5.1099866611206003e-002,
          4.1423719801925572e-002, 7.6669438812369081e-002,
          -8.9320298537697226e-002, -2.5946749237099678e-002,
          7.1001844742920855e-003, -1.1725039486688865e-001,
          2.4948897275098977e-001, 3.4767131466912522e-002,
          1.5558834263734847e-002, 7.4676709666352287e-002,
          -7.6034252849296449e-002, -7.0494531796373591e-002,
          2.2481217398170737e-002, -3.7735938843215376e-002,
          -1.7947677114677463e-001, 1.0858453054113872e-001,
          -9.2958587107117477e-002, 1.5989256914765379e-001,
          2.0938631807204305e-001, -3.4987945597559099e-002,
          -1.9762487538804760e-001, -1.3512846752210930e-001,
          -7.9656751598358624e-002, 9.3067454788906441e-003,
          1.0007352731010649e-001, 1.7324504715873934e-002,
          2.5921152787835296e-002, 3.1943380305876477e-002,
          6.3149824210497793e-002, -1.8006474713182838e-001,
          3.8346311597275175e-002, -8.2709233100808563e-002,
          3.5193297361869984e-002, 3.2383868843737888e-002,
          -1.5247898511678762e-001, 6.6848797598464099e-002,
          5.6088148729879682e-002, -1.1155697726444307e-001,
          -1.8004324494888760e-001, -2.0187357422521082e-001,
          -6.1247413147173670e-002, -1.6854353581975909e-001,
          -9.9509010218902474e-002, 2.0904086954223125e-001,
          -4.6662510035382361e-002, -1.5476526249903952e-001,
          5.9072277811283075e-002, -4.6607362914804717e-002,
          4.7787753086365195e-002, -2.3017401368487126e-002,
          -1.6258357800898474e-001, 9.1808706560636937e-003,
          -1.3227876717022677e-001, 9.8648131368980846e-002,
          -3.3262059879956153e-002, 2.9761772154819979e-002,
          2.1670907503361087e-001, -9.2982170787728649e-002,
          -3.0536710809556850e-001, -1.7048742695631527e-002,
          -1.1662672773029611e-002, -2.0644556225152438e-001,
          5.4095106178091754e-002, -1.9661201090636515e-001,
          7.9735054325055274e-002, -8.2129995333029018e-002,
          -4.5415643349209590e-002, 1.1878635631275294e-001,
          -5.9350694559904809e-003, 4.6564543044901501e-003,
          -1.9217435374539715e-001, -1.7311968668362079e-001,
          -1.0047951479710998e-001, -6.9822029326633310e-003,
          -1.7328806419140405e-001, 1.2848307697422807e-002,
          1.7944749424718576e-001, -2.5602487997295437e-002,
          -4.1690601614443490e-002, 1.2072070398664236e-001,
          2.0598067622470875e-001, 8.6413187056891300e-002,
          -3.0007775827223391e-002, -2.2374777063726958e-001,
          8.7394350383935379e-002, -8.6011841671791586e-002,
          -8.1721430801686798e-002, -9.3267597486777515e-002,
          -2.0349047221496833e-002, 6.3753838928995124e-002,
          -3.3534340381673994e-002, -1.3646274649735174e-001,
          -1.1190756564484383e-001, 9.1699890539475776e-002,
          -2.3532840753204240e-001, 7.6912311902243249e-002,
          -4.9676541206136399e-003, -1.0085663208399065e-001,
          -4.5289521546252348e-002, -6.6495735893535371e-002,
          -1.9411973941803651e-001, -8.8644515369552992e-002,
          2.1277517003757004e-001, 5.1320728358392458e-002,
          -9.4006186396742464e-002, -4.3252565239540026e-002,
          9.7080281407931721e-002, 7.5967462154566290e-002,
          -1.3633658789189218e-001, -3.0391680333404369e-001,
          8.8696260811939164e-003, -1.7547565552343884e-002,
          -1.3586798043168002e-001, 1.1785675985105096e-001,
          -1.1026377976249356e-003, 6.2039724602998302e-002,
          5.3114233204339029e-002, -2.9187584678668232e-002,
          -6.4688458069069699e-002, -1.9975665620185634e-001,
          -8.2442976975800816e-002, 1.0639700490767344e-001,
          -6.3226074261187093e-002, -9.0169056789263097e-002,
          -7.0187111416378900e-002, 1.0580694812590714e-001,
          2.2296022891483347e-001, 3.3002857157039150e-003,
          -5.0777450849076193e-002, 1.4852742323830628e-001,
          -1.7014259440744254e-002, -2.5850763026096313e-001,
          1.0639253556379290e-001, -1.1313920109720460e-001,
          -8.8131095025772974e-002, -1.2401000710052261e-001,
          -7.1722144386716730e-002, 1.9107358523990270e-001,
          3.1189918740666504e-003, 1.3889043276360064e-001,
          -1.3437156279304471e-001, -1.2718900710468806e-001,
          1.1035143000268055e-001, 4.5380081472271697e-002,
          5.1950252581897567e-002, 3.6291345935023089e-002,
          -1.0357934616069410e-001, 9.5947092422544629e-003,
          -1.9909838057039461e-001, -1.0247316335483428e-001,
          2.3711293421015928e-001, 7.9723196062599144e-002,
          1.1310998143335653e-001, 1.6990778907311710e-001,
          -3.0270906626840960e-001, -1.2299811078819135e-001,
          3.0527790160989856e-002, 2.4629927826491360e-001,
          -6.4430103614296561e-002, -2.1741680471043676e-001,
          6.6712266116067578e-002, 1.2426018205353299e-001,
          -1.2462957428879716e-001, 5.5687098528213012e-002,
          7.3764150900343453e-002, -1.3926047745288566e-003,
          -2.5384835410365947e-001, -1.9967927256861917e-001,
          -2.2616368083319308e-001, 8.7299277776150166e-002,
          -6.9915844529713448e-003, -2.0110009517527835e-001,
          2.5823928795988671e-001, 1.3194912316053428e-001,
          1.1643755945792923e-001, -7.3401695792398400e-002,
          1.9409071059965394e-001, 1.5790247607315941e-001,
          -3.3945272647186157e-002, -2.2259082434797581e-001,
          8.3054640516265613e-002, -7.9031666107571910e-002,
          -1.2538130748107162e-001, -1.6590923044326789e-001,
          4.8011141316956295e-002, -1.4235166158704887e-001,
          3.1447827892008617e-002, -1.2001150201444092e-004,
          -2.5315494546808433e-002, -7.5098619622915613e-002,
          -1.6593501696589438e-001, 6.6769082669796836e-002,
          1.9536288929187542e-002, -3.6950671628270482e-002,
          -5.7623365341822670e-002, -7.3170402736079443e-002,
          -1.7864371373503324e-001, 1.3604236316811277e-001,
          1.7410932251764336e-001, 7.9861983057937180e-002,
          1.0654826229429103e-001, 7.4150447770049574e-002,
          -4.4992590949700900e-002, -1.0576265275023079e-001,
          -7.5999773063161830e-002, 9.0368296150426589e-002,
          2.2861493636421631e-002, -1.8355267025701580e-001,
          8.0705273240890718e-002, 6.3727923917620957e-002,
          -2.7694016103088231e-001, 4.7735008951681861e-002,
          8.0063854414455987e-002, -1.0566003777956466e-001,
          -1.6365215260962160e-001, -1.9419797918394163e-001,
          -5.1777044550104324e-002, 2.3965065634164820e-001,
          -1.3335601874850378e-001, 1.0850789473293340e-001,
          -7.4334186526619911e-002, 2.4991704339750656e-001,
          -1.1968224600345308e-002, 4.6363991410959898e-002,
          -2.0858599356778618e-001, 5.4705752059751211e-001,
          -3.4507106599845100e-001, 4.7492286960858598e-001,
          3.9003778858030219e-001, 5.4889379657121495e-001,
          7.4230852459347282e-002, 2.7847783669110049e-001,
          3.5440133370609384e-001, 1.2433043155192515e-001,
          3.0020155306826213e-001, 4.1434953277533304e-001,
          7.0490170095621174e-001, -1.1960500529547327e-001,
          -3.6466624199510786e-002, 2.8938594024689662e-001,
          7.1072373238104147e-001, 5.1818254671777486e-001,
          1.4933614750961580e-001, -8.8623447004750988e-001,
          -3.2843722035193973e-001, 5.9210139891212765e-001,
          1.0781111925474983e-001, 4.3176037083803737e-001,
          -3.7685315355361147e-002, -1.7932454591197047e-001,
          3.3786443955385004e-001, 1.4449582147039211e-001,
          -1.2572100434088368e-001, 6.4310723737455633e-001,
          -5.2216561507703096e-001, -6.0199600747671861e-002,
          -9.9290125159622239e-002, 6.7271744938460262e-002,
          -8.1300451966361417e-002, -2.6430905753772649e-001,
          -1.2878518045644569e-001, -5.8188376243937034e-001,
          1.6660070420376236e-001, 7.0325589575794253e-002,
          -1.6095828323172051e-001, 7.7499650004816747e-002,
          -2.1564310214253626e-001, -1.7980450774333320e-001,
          -6.5981028486415338e-001, -1.9745711092194479e-001,
          -5.3408543509571138e-001, 1.9908878867831217e-001 ]
      - [ 1.0639900209816608e-001, 1.8935285697106974e-001,
          6.5280285064943722e-001, -5.1086861483746371e-001,
          3.8955709846106523e-001, 4.7043118770023068e-002,
          -5.1025626469146823e-001, -3.3965959973706183e-001,
          1.1183053922063211e+000, 7.9933346148549844e-001,
          8.4679136904119978e-001, 2.4879917666659299e-001,
          4.5827432882802815e-001, 3.6849008742870837e-001,
          -6.6554479470774652e-001, 1.2670328503003023e-001,
          5.7583200542928603e-001, -1.5882225135660910e-001,
          -1.1768332041477304e-001, -5.1095336258038804e-001,
          -1.0922738512449007e-001, -8.8958284318581771e-002,
          2.9237470249226560e-001, 1.4501093153135924e-001,
          -1.3379609069222986e-001, -2.9503757868299618e-001,
          2.1695944505657477e-001, -3.3072340788166127e-001,
          6.0747398792181606e-002, -9.0481415356107442e-001,
          -2.9057629564123494e-001, 7.8309474653571454e-001,
          -5.0064366138825078e-001, 1.9945504233795383e-001,
          2.5087176716628118e-001, 8.6935744618637201e-001,
          1.4327373403345908e-001, 5.2271554500057216e-001,
          5.0872466800348803e-001, -3.0086217611278054e-001,
          4.1911037737218326e-001, -7.3288518996148966e-001,
          -5.6037277790841701e-002, 2.4406287503204563e-001,
          -5.6246991820801132e-002, -2.4294565642233440e-001,
          4.1443248789998677e-001, -6.3109989864525119e-004,
          4.2847880209752237e-001, 3.0868245629831881e-001,
          1.7895001567264768e-001, -1.7339885307501715e+000,
          -1.8203261445643458e-002, -5.3259168802159784e-001,
          4.4069261143049865e-001, -6.3765569194128222e-003,
          -9.5177769651550881e-001, 3.4453997008827048e-001,
          7.3868983354395590e-001, 3.8452871217807322e-001,
          -2.2655620764545298e-001, -3.9787603719517434e-001,
          3.6187780827815802e-001, 4.6680151487820082e-001,
          8.8124764293420296e-002, 3.4942223366629571e-001,
          -3.5425300674817284e-001, -6.5278039005114386e-001,
          -4.9087390887974552e-001, -2.5053433228312277e-001,
          -6.0428228564701945e-002, -1.9293794369113235e-001,
          1.2486662268165509e-001, 2.9283924056320004e-001,
          5.5719298866840083e-001, -2.0053672304622950e-002,
          -4.3363217098343493e-001, 1.7697703349532162e-001,
          9.2171859716842941e-001, -1.7481512263881713e-001,
          -1.6735253257229782e-001, -5.9120062112576012e-002,
          -8.0059006523792464e-001, 3.0787667096213023e-001,
          4.3342875477820592e-001, 6.9728177281555526e-001,
          -1.8400964707617179e-001, -3.7447618363251350e-001,
          2.2636921055494155e-001, 5.5585652410632691e-001,
          2.8010686459128603e-001, 5.9731020121721445e-001,
          -1.2427522926754148e-001, 3.9674821129734933e-001,
          -7.7934651791919843e-002, 2.5342405582694089e-001,
          5.7086096199366373e-002, 4.9996280604793930e-001,
          1.3346438977545586e-001, -4.0125036691479710e-001,
          5.5460815331843105e-001, 2.9231902799784371e-001,
          2.8422684538462484e-001, 3.1976073222129600e-002,
          -1.1564518316310549e-001, -7.1252744890523689e-002,
          4.4476094277421646e-001, 7.8873660086376574e-001,
          2.7246873070747724e-001, 2.9905765823784852e-001,
          -5.4009360045898691e-001, -2.1107420142223837e-001,
          3.6059049572133633e-001, -2.9588366159551016e-001,
          -2.4100789406188855e-001, 7.6145742558349314e-002,
          2.1839129151606540e-001, 8.1379311374662611e-001,
          -2.6371249439253952e-001, 1.7085926537806589e-001,
          4.8423542143759213e-001, 5.3923939607033657e-002,
          2.4454733937728512e-001, 2.2012222194023656e-001,
          9.3138391750794192e-001, 6.9297482285926226e-001,
          8.3351544816908263e-001, -6.0188358159712307e-001,
          7.9850098250792589e-001, -3.9473232210896880e-001,
          -4.7311635298664428e-001, -8.8321122089900589e-002,
          1.9774726370274604e-003, 1.0522531755545026e+000,
          -7.4714275936973562e-001, -3.2389746391146196e-001,
          5.1495675704079702e-001, 5.7434053245842354e-001,
          -6.3706284826202542e-001, 2.7189568825276653e-002,
          -5.6872101106202866e-001, -5.5918879736908411e-001,
          -2.9612485197467364e-001, -1.5377197745986076e-001,
          -7.3844649511572058e-001, -7.9212088792884294e-001,
          6.0648485241661754e-001, -8.0623982761036372e-001,
          -6.2062603484253231e-001, -3.2442647694831084e-001,
          1.1927998045130739e+000, 3.6704399428030332e-001,
          -9.9050179426241103e-001, -3.0616680338028546e-001,
          -3.7211993923744961e-002, -6.5447972282578190e-002,
          -5.4321332281655133e-001, 2.5207056657461202e-001,
          1.3993211370215006e-001, -2.5950209256022766e-001,
          -6.3895768398810759e-001, 2.7275913131308466e-001,
          -3.7122233965179874e-001, -1.1275895212100751e-001,
          1.0346879579250154e-001, 5.8879164823945418e-001,
          1.2909366407422135e-001, -8.1655941958559367e-002,
          4.0712761408505477e-001, 5.5448751082682257e-001,
          4.9754839817739420e-002, 2.7664109550484539e-001,
          2.2633787702130562e-001, -7.0575710838569128e-001,
          -4.8770898134185961e-002, -2.2722471315882349e-002,
          2.0347504055789498e-001, -6.4097077088629495e-001,
          -3.8792521176614309e-001, -7.6098001693735629e-001,
          2.6565199553666358e-001, 6.8951881241001800e-001,
          1.9360519120927661e-001, 1.7475410519750517e-001,
          -5.1699302832173533e-001, 2.8819519268150867e-001,
          3.9198429161595522e-001, -5.1939109875047140e-001,
          -6.1301375016613424e-001, -7.0445002389507716e-001,
          -6.5438082822880583e-001, -2.8261091203944066e-001,
          -4.1557649185218709e-001, -9.0433542838539896e-002,
          1.7090771162337806e-001, 9.4519483286142736e-001,
          -2.7422065713153182e-001, -5.8829327182738023e-001,
          -2.2839505138404761e-001, 9.0475513466859392e-002,
          -4.6664272160457182e-001, -3.4278532518385425e-002,
          2.4305237908450145e-001, 5.6972857132971684e-002,
          6.2153351340128826e-001, -1.9534842639675182e-001,
          3.8338349419367546e-001, 5.7175960348321986e-001,
          4.2708141954615991e-001, 4.3309353943488155e-001,
          4.0346829558197456e-001, 1.1877784024220012e-001,
          -8.7761160896993173e-001, -3.8114578954769657e-001,
          6.5725515669432755e-001, 1.5211813410699963e-002,
          3.5732835163396970e-001, -6.0047180790348480e-002,
          3.2228231212386732e-001, -3.2873690859780524e-001,
          -4.5432660618548143e-002, -9.7528146837100005e-001,
          -2.5172662395493139e-001, -3.3414930945769200e-001,
          4.2962922038495532e-001, -3.1065560079631238e-001,
          6.7486951605346246e-001, -1.6957444723130774e-001,
          6.6683999937522859e-002, -9.4059532934799753e-002,
          7.7651090439841669e-002, 2.0375177902110969e-001,
          -3.7289354357707161e-001, 5.2963098622984671e-002,
          2.2939992877351109e-001, 7.0525711661018065e-002,
          2.2386097673822691e-001, -1.5263998167400158e-001,
          -2.1042274644419498e-001, 3.6798568137905741e-001,
          -8.5447633379799715e-001, 4.3917742156264622e-001,
          -2.2880820490815934e-001, 3.0543911725235393e-003,
          5.7444142695898381e-001, 2.7387780934262390e-001,
          4.7398608627818095e-001, -5.3458945970750099e-002,
          -1.2231640648039999e+000, -6.8438122298519333e-001,
          -1.6735660866868154e-001, 6.0012144470520179e-001,
          4.6917510939464435e-001, 4.0530746433258313e-001,
          -2.0676079510836701e-001, 3.7079716511578703e-001,
          -3.0305786976209897e-001, -1.0343126913445417e+000,
          1.7209311721256695e-001, 4.2480066234498409e-001,
          7.6756734099790813e-001, -4.7613246480415367e-001,
          5.4828387334611484e-001, 1.4951494035245573e-002,
          3.3763088822083598e-001, -2.7268700666379420e-001,
          2.3524679595685422e-001, 5.4858976474633038e-002,
          8.5365175124745696e-001, -2.8105078517005422e-001,
          6.1463012140142236e-002, 5.5671362875670261e-001,
          1.0995977101812224e+000, -2.6577978094534216e-001,
          -5.1397585283723823e-001, 4.6040046872563506e-001,
          6.3506780209421493e-002, -2.9665266643433735e-001,
          -8.6626084155323657e-001, -1.7821281797101224e-001,
          -8.6503183662540714e-002, 6.8181300622648044e-001,
          -7.0496644567470024e-001, 2.8354225546800177e-001,
          -2.5097050999797088e-001, 2.7246836710464439e-001,
          6.8070304725130745e-002, 9.4135386442635860e-002,
          8.8483977458655039e-003, -4.0468896632099899e-001,
          -3.9327414315463211e-001, 3.3678158456600027e-001,
          -7.1370684840886711e-001, -1.7802702200556624e-002,
          -7.8277164069874294e-001, -2.2271915872404152e-001,
          6.4063017823870116e-001, -2.3067495184124065e-001,
          5.0722862761133147e-001, 2.1796352695953947e-001,
          6.7292233740996618e-002, -8.4331117717618198e-001,
          5.9796740278865923e-001, -2.7636578823523128e-001,
          1.9378336095767562e-001, 6.6559759773071314e-001,
          2.6751190514612416e-001, 8.6102800662597428e-002,
          7.8054873230367006e-001, -4.1967583160921246e-001,
          -3.1964523909605841e-001, -2.1212378270753177e-001,
          -8.6426586259764338e-001, 1.0954426094770644e+000,
          1.6066781626821663e-001, -4.6452381561613992e-001,
          -6.6909814367421494e-001, 8.9796873106862618e-001,
          3.8786283021183021e-001, -5.4402912481680243e-001,
          -2.5060534851066553e-002, 4.8117999148992835e-001,
          -5.8430799708554326e-001, 1.2304687627252879e-001,
          -5.9260598025186206e-001, -5.3115288932630234e-001,
          1.4379943012206819e-001, -6.7193332055748689e-001,
          -4.3081739690731768e-001, -4.1690009830332403e-001,
          -2.9724496293854680e-001, 6.8455999997716155e-001,
          -3.9741977699135900e-001, 9.5631356460029959e-001,
          2.7368055213809167e-001, -4.3130738984243777e-001,
          1.4474558514219585e-001, 1.1129055062715567e+000,
          -1.8535512322198969e-001, 3.7479896283046754e-001,
          1.1848432419805691e-001, -1.0680809520162919e+000,
          -3.1827636443725127e-001, -3.0637523295739466e-001,
          -1.5560023282605864e-001, 1.4894090032190965e-001,
          6.8079453144198654e-001, -7.7655142964204588e-002,
          7.6919500510512751e-001, -3.4231581140681699e-001,
          -1.6588562140809085e-001, 6.9553985534282059e-001,
          -8.7370394311391486e-002, 6.3839281282126759e-001,
          -1.0121049396862269e+000, -6.7619917821092324e-001,
          -5.0942324341936895e-001, -1.9892330504947800e-001,
          -4.0282925930819147e-001, -6.8972616751651422e-002,
          3.8754949076654582e-001, 2.6964146015386170e-001,
          -6.9790314192221081e-001, -4.3847878271918794e-001,
          2.9708861329100200e-001, -3.9635688761968013e-001,
          7.4718445424930113e-002, -5.4417712200748236e-001,
          -5.4489700026840193e-001, -3.0911091283298237e-001,
          -8.2516201696490446e-002, -6.8565885192622611e-001,
          6.6935605198496639e-001, 3.7264115257085784e-001,
          3.2646808363789309e-001, 2.5103484087994959e-001,
          1.6017123748085116e-001, -7.1166766553658045e-001,
          6.4931932786543911e-001, -3.8879953613634238e-001,
          -1.0764007831739027e-001, -5.5473019318556704e-001,
          -3.5075581013319762e-001, 4.0711098664948647e-001,
          -3.4455578781211288e-001, 1.7237741533248199e-001,
          -5.2194275796456346e-001, 2.5341996273414596e-001,
          -8.7250709972774354e-001, 2.3203773041662384e-001,
          -9.8674033572713893e-001, 6.9987630659824407e-001,
          -7.1486364638149835e-001, 8.4742921362174171e-003,
          -4.6922132903791014e-001, 6.7493064050425600e-002,
          1.0532315296803276e+000, 6.8388664057011317e-001,
          2.9364386891014616e-001, -3.4897096680314342e-002,
          -6.9461461843643724e-001, 3.7502506533305330e-001,
          5.7278651815000518e-002, 8.7645662098978550e-001,
          -5.3084856333028696e-001, -3.9847279996174156e-001,
          -7.6501096620061027e-001, -1.1088050540914463e-001,
          3.6038031282953222e-002, -1.5593124151158155e-001,
          -6.7412039025048864e-001, 7.8388026413258116e-001,
          1.2012439612409909e-001, 3.3710057389391107e-001,
          4.3023864554927882e-001, -8.3784811880489043e-002,
          7.2003268701448531e-001, -5.7123586906876944e-001,
          -3.3408236069363340e-001, -5.3456212592816688e-001,
          -2.3928466645529009e-001, -2.3704522686557278e-002,
          -1.9280916878972804e-001, 2.4695825260729862e-001,
          -1.2957024591664174e-001, -1.1927211333021297e+000,
          8.3461689633039501e-002, 5.7102503058465959e-001,
          2.1178091018505837e-001, -2.5653063422248396e-001,
          4.2308576965573837e-002, 5.8259550851504993e-001,
          7.9472253678375515e-002, 2.3860283829330498e-001,
          -4.4614593849600104e-001, -4.0800864771474149e-001,
          -5.6603336256253300e-001, -5.8529303555258971e-001,
          -5.0954068574007083e-001, -5.7984710714267959e-002,
          4.9036934420896523e-002, 4.4075180413955311e-003,
          -7.8188205790889509e-001, 4.1020800059060331e-001,
          -9.5235845210043535e-001, -8.3314208326355055e-001,
          4.9290810250968342e-001, -2.7574631304400388e-001,
          -7.9538703355865203e-001, 6.1765739503319361e-001,
          7.4240993162430069e-001, -2.2271047957863765e-001,
          1.6299823833389016e-001, -7.4671507280834093e-001,
          6.3045329260602834e-001, -3.4793452799763502e-001,
          -4.6083929929246020e-001, -3.9916911859581100e-001,
          -2.9313307670708771e-001, -1.0912129385307855e-001,
          -3.6180627124553688e-001, 4.3691792071601961e-002,
          5.5861064701326868e-001, -6.8035189333599488e-001,
          -1.1102929897625291e+000, -1.0566025234443630e-001,
          7.5238742504392087e-001, -4.9189816058111230e-001,
          -4.2629151910959395e-001, -1.2338348945159010e-001,
          -8.5828466871281472e-001, -1.5630152109036957e-001,
          -1.2437104924748185e-001, -4.3456716965096781e-001,
          -9.3016547070482003e-001, 7.2641234288384637e-001,
          -7.3279338169759956e-002, -7.5698263312756309e-001,
          4.1088676433193688e-001, 6.6252489426632788e-001,
          7.5101637281617534e-002, -2.7709529870493288e-001,
          3.3517988976671159e-001, 5.9349333616663724e-001,
          5.7794080304982030e-002, -4.5426200617648638e-001,
          -8.5342987114455870e-001, -7.9600210032922072e-002,
          -9.8149450269703634e-002, -3.8352419117350828e-001,
          -3.2276965603770180e-001, -7.0833905221800009e-001,
          -1.5037393280018235e-001, -4.1733519721211304e-001,
          -5.0005168744488981e-001, 1.8138826807763676e-002,
          2.2727409627920296e-002, 1.3412223606581936e-001,
          -2.4535121969228676e-001, -6.9713895310394525e-001,
          -7.4073242448303978e-001, 7.2760086992177186e-001,
          2.9892482032892631e-001, 3.2984350812841712e-001,
          -2.9825653731284857e-001, 2.1157975284218672e-001,
          -7.0691219285982410e-001, 3.6123273306693460e-002,
          1.0000299643707532e-001, -3.8185551253663436e-001,
          2.1399002157647878e-001, -2.7665359226033254e-001,
          -7.8890597645594385e-001, -3.6324447805478066e-001,
          1.1480836930770562e-001, 1.9974829749927875e-001,
          2.2417879552833499e-002, 1.8837274172801208e-001,
          6.6558711666313943e-003, -1.3314372823336690e-002,
          -1.1596825646765341e-001, -3.9079265684500097e-001,
          -5.4187116847286210e-001, -1.0109690416555521e+000,
          -3.1928538909937583e-002, -5.7994351908373643e-001,
          -7.6639473834503313e-001, -4.3511840345228830e-001,
          -8.6927908085893113e-001, -9.3998458170005975e-002,
          3.0431449191412030e-001, -5.8595307889084336e-001,
          3.1418769304057581e-001, -7.0920246080855731e-001,
          1.3028605615062175e-001, 2.8737290939190402e-001,
          -9.8569246813070333e-002, -1.9142464507968734e-001,
          -6.7230084940044743e-001, 3.3620193358525774e-001,
          6.5976975103712643e-001, -1.3612370415788141e-001,
          -1.1636611169614437e-001, 1.3418428099359148e-001,
          9.4906689470402830e-002, -1.8682245715816850e-002,
          -6.2334130097819029e-001, -5.7409566059169281e-001,
          -8.3614163572190126e-001, 3.7747447906122544e-001,
          7.9637778958572147e-001, 9.0560679867499017e-001,
          -5.8522889061912031e-001, 3.4523025804599067e-001,
          -2.7305289549839290e-001, 4.4490881972829160e-001,
          -8.8512408107244989e-001, 6.0416416657299810e-001,
          3.9982885047089800e-001, 9.0160231297332055e-002,
          -5.0797956311356551e-001, 4.4050719070968208e-001,
          3.5839354991854200e-001, 7.5316188856558008e-001,
          2.8875658057193565e-001, -9.1172287538030394e-001,
          6.3751643515170736e-002, 1.0210899531820858e-001,
          2.9772910541724956e-002, -6.4218820222308259e-001,
          -3.2077530637327933e-001, -7.7012193871589685e-001,
          4.8953564735652960e-002, 2.5674753453172383e-001,
          8.8779229179823838e-002, 5.8284254953469661e-001,
          -1.4685337386362532e-001, 7.2772522876274548e-001,
          8.6949909728983588e-002, -5.2994359283099934e-001,
          -6.5114692136278229e-001, 7.5295458011894179e-001,
          -1.2376513151272741e+000, -6.6275924393927688e-001,
          -4.6592557197230283e-001, -6.6224850226403076e-001,
          -7.7665617777094942e-001, -6.5221707320394673e-001,
          -1.9089098047582631e-001, 8.4711427280667762e-001,
          -1.0417576467154147e-001, 1.1532227836413232e-001,
          -4.6244020624320081e-001, -5.1061782929589938e-001,
          6.3613957651684527e-001, -3.0155844580918534e-001,
          1.8334799275163555e-001, -1.6042494845090255e-001,
          2.6890855560431231e-002, 8.5207568843814796e-001,
          2.1029971739644185e-001, -1.8880773053758210e-001,
          -3.1858192624767090e-001, 4.7903339177501801e-002,
          5.3973130563889227e-001, -5.9941831578840354e-001,
          3.2891324358018836e-001, 1.6299594340897045e-001,
          -6.1926834824474419e-001, -5.2507409787041492e-001,
          7.1055136604721369e-001, -3.6379618186934193e-001,
          5.2701464893592587e-001, -8.6392933201750310e-001,
          4.6520750304066816e-001, 1.0793026398695391e-001,
          -8.0945924972113087e-002, -1.6306378185016723e-001,
          -5.1248208563953257e-001, -5.7028343694521377e-001,
          -2.1361701668300266e-002, 1.8026304152148534e-001,
          -3.5304138034709692e-001, 5.1430167582028696e-001,
          4.4660711100889405e-001, -4.0454201785200233e-001,
          -2.3954480112637858e-001, -5.7406114682569787e-001,
          -9.2630242993860301e-001, 3.0753026129659182e-002,
          5.8037932379166442e-002, 1.6578297323756300e-001,
          7.2023898751520421e-001, -3.3291486929634739e-001,
          -6.0634134059625522e-001, 2.7917310366540093e-001,
          1.7094929956474320e-001, 2.4958087917000113e-001,
          -3.2326551352390709e-001, -3.2810898718745940e-001,
          -5.8103488993145247e-001, -1.0849165838014595e-001,
          -3.3694205196803928e-001, 2.3760455352039195e-001,
          -6.4879909798644853e-001, 9.3372382682301425e-001,
          5.2400290029383345e-001, -6.3221882390650197e-001,
          6.0581227265756399e-001, 4.9233648897023208e-001,
          2.9609574693185753e-001, -2.0609183845552040e-001,
          -3.0249135169182512e-001, 3.6189327583275549e-001,
          -6.1657273361445675e-001, 2.7041382657242002e-001,
          -1.0918551463155279e+000, 5.1260700228069160e-002,
          -1.8519894752344160e-001, 5.2545706423383376e-001,
          6.5543411165127519e-001, -5.5886519631829290e-001,
          -7.5333451145977848e-001, 2.5093852902275665e-001,
          -1.0999410631782888e-001, 8.2156504440830180e-001,
          -4.9700895027905293e-003, -2.3872099942962569e-001,
          1.9841721816411077e-002, -3.0275526252646506e-001,
          7.2079918687742472e-004, -7.0106511927327408e-001,
          -2.9747104329838993e-002, 9.6318768182512648e-001,
          5.1636813408768434e-001, -9.0221693139119996e-001,
          8.2159146580902731e-002, 1.0767965452018036e+000,
          2.2942057741270974e-001, -1.6179217465438073e-001,
          -1.7863133915986629e-001, -7.7059755924852713e-001,
          4.1931582445624316e-001, -7.0154953403216647e-001,
          8.6183429798690891e-001, 7.7326110653344327e-001,
          -4.8329406681255993e-001, 2.1441647011771220e-001,
          -3.9141184449420295e-002, 6.2785276387260947e-001,
          6.7525197183626973e-001, 3.6205681268908202e-001,
          1.9280276371155183e-001, -2.6370917004871680e-001,
          1.7481427257427101e-001, -3.8588513739214664e-001,
          7.6947415960156340e-001, 4.4941075910093220e-001,
          1.5626951567971747e-001, -7.5165413611213405e-001,
          1.5354149939657252e-001, -2.5945564540183491e-001,
